281 256
的 0.007048596 0.018161163 0.05997924 -0.09215749 -0.11170869 0.06861756 -0.06222621 -0.2130992 -0.01461125 -0.088157065 0.090328336 -0.11690592 -0.11538706 0.06816495 -0.013625976 -0.050008275 0.0051552877 -0.06810837 0.05179526 0.0178292 0.09171237 0.073247716 -0.16596094 -0.019948736 -0.015917672 -0.09239514 -0.1847203 -0.061337944 0.12025626 -0.042770546 -0.009378215 -0.14625637 0.12423437 0.12283498 0.04436421 -0.11409745 -0.10711966 0.08285528 -0.1728325 -0.04665188 0.121112384 0.08431838 0.12606645 0.09182808 0.043217026 -0.03532528 -0.11085493 -0.015007954 0.087450236 0.058608443 0.05582283 -0.049578696 0.016576773 -0.026509676 -0.055128925 0.03017151 0.10724142 -0.17993611 -0.18826745 0.14962754 0.13438436 0.08196602 0.08500588 0.003993052 0.070771985 -0.17454618 -0.09834012 0.062784955 -0.12683128 0.067448206 -0.068989135 0.03236626 -0.02284241 0.13201272 0.09090075 0.16790073 0.035383247 -0.039552405 -0.062368445 -0.011206433 -0.074065514 0.13925883 -0.06085255 0.15123214 0.052893084 -0.018128539 0.07807247 0.052886587 -0.077689715 -0.09692723 -0.37755695 -0.074224435 -0.10815558 -0.14163636 -0.014412993 0.20531283 -0.039219502 -0.10864993 -0.08170969 0.18422256 0.037501365 0.09803851 0.016706374 0.11640378 -0.20533262 0.03097314 0.12071381 -0.072574385 0.0074926415 0.1301141 -0.11081002 -0.2017232 0.018377276 -0.05035395 0.009471779 0.07922387 0.02634999 0.037131384 0.0346569 -0.034472004 0.08822765 0.05196571 -0.023584269 0.24929118 0.19171254 0.1402377 0.002143219 0.03422616 0.094893195 -0.07992968 0.047647618 -0.020886976 -0.13905948 0.050350517 -0.16233577 -0.04169868 -0.078219645 -0.015041378 0.18552731 0.059726756 -0.14965963 -0.13281517 -0.06060962 -0.09027113 -0.022316854 0.11720062 -0.2532064 -0.1189797 -0.05677244 -0.022500163 0.14285478 -0.1265819 -0.2525656 0.035334177 0.08658684 -0.177636 0.1432827 0.0239596 -0.01993643 0.051316008 0.055882353 0.048032876 -0.13537692 0.038184524 -0.0007914459 0.09415763 -0.087702 0.006709206 -0.076097526 -0.040322162 0.028677335 -0.09903662 -0.09214518 -0.06185476 0.020954574 0.10565799 0.1334624 0.116607755 -0.07626972 0.08337841 0.012982756 0.021925604 -0.0404958 -0.06133245 0.028534193 0.0058727837 0.0801176 -0.09720458 -0.006721127 -0.00049932353 -0.048897214 0.04840056 0.16468424 0.028659366 -0.20755547 0.030288206 0.052215815 0.13028197 -0.004485917 -0.13801062 0.07952678 -0.033031654 0.06664893 -0.1347661 0.099464305 -0.15047728 -0.0021570479 0.059330277 -0.05272269 -0.010653198 -0.011393231 0.065563366 -0.045346793 0.034705393 0.06453639 0.025245408 0.028718026 0.2142514 0.0219624 -0.116936676 0.0090695815 0.10575118 0.045464464 -0.013787818 -0.10424127 -0.031336192 0.13343614 0.10137467 0.060804185 -0.13248321 0.16691075 0.06202803 -0.050272834 -0.12709422 0.05500323 -0.05354533 0.109193765 0.14306396 0.046437047 -0.020161552 0.04536165 0.03359271 -0.019193416 0.0875862 0.04052999 -0.026318207 0.016290652 -0.024410827 -0.09308761 -0.1511841 0.018329658 -0.20568344 -0.02660316 0.018655116 0.09439306 0.006117106
。 -0.07166313 -0.024237014 -0.08219253 -0.12703158 -0.0064476277 0.066026255 -0.050022624 -0.12775248 0.057936173 0.005889593 -0.009170743 0.06821196 -0.027367342 0.124433435 -0.008072822 -0.08401091 0.0573773 -0.10203499 0.04575962 -0.020703623 0.028384557 -0.06524787 -0.023383081 -0.04879783 -0.01852668 0.039910544 -0.08270433 -0.08351938 0.11104044 0.051622167 -0.12651888 0.056906514 0.11592478 -0.02231786 0.015843928 0.093200214 -0.14586465 0.029743252 -0.12019924 0.09378243 0.061675563 0.15028201 0.023543805 0.06381894 0.13681921 0.04585602 0.04435434 0.02137406 0.034698445 0.0150879305 0.022346048 -0.01752225 0.041340243 -0.08762517 0.039723456 -0.011087089 0.1346859 -0.10505001 -0.15049627 0.11110922 0.17371358 0.11601177 0.10648849 -0.038187083 -0.040471546 -0.098258734 -0.015901584 -0.0063683055 -0.18108223 0.055810507 -0.004864387 0.12745194 -0.026233595 0.091204636 0.10551185 0.104001865 0.056582082 0.04899666 -0.18411466 -0.037918907 -0.018904548 0.1822418 0.05837629 0.12013396 0.13223222 0.08030454 0.044502065 -0.011341119 -0.08174923 -0.025993433 -0.15912752 -0.021916317 -0.0074262107 -0.123081826 0.009055296 0.19507582 -0.048555903 -0.035931632 -0.09407311 0.09340762 0.026274145 0.07677315 0.092478804 0.015104344 -0.18398702 -0.018152162 -0.028658422 -0.0022693642 -0.0067842826 0.015619364 -0.038620282 -0.0865917 -0.019341296 -0.09690465 -0.0119640995 0.04994172 0.10788395 0.006045471 -0.087823905 -0.0023889584 0.063930124 0.061855804 0.13575605 0.1292435 0.16290082 0.04963923 0.0066442057 0.046448544 0.05017212 -0.120079406 -0.029938376 -0.060997892 0.016537305 0.04311038 0.023471069 -0.037762698 0.034298327 0.09472254 0.2845768 -0.08134414 -0.031125344 -0.09408902 -0.050479524 -0.0012554943 0.097426035 0.06367906 -0.053701613 -0.13322766 0.006314039 0.077560194 0.13119929 -0.042087045 -0.21931924 0.027872078 0.046952143 -0.06750268 0.12957779 0.11512569 -0.02909479 -0.013215891 0.046861436 0.13647595 -0.035339527 -0.060533054 0.003096121 0.10992349 -0.17766042 0.043093923 -0.009901339 0.0030806141 0.01293991 -0.042851057 -0.09777827 -0.030056564 0.08594487 0.20843385 0.0054569193 0.1550001 -0.18849091 0.124503575 -0.026779046 -0.0037568975 -0.076581165 -0.10586876 0.0050206734 -0.10794888 0.104371585 0.07506879 0.115476616 -0.020230932 0.02347283 0.059047412 0.1598931 0.049627226 -0.11710015 0.013942986 -0.050498262 0.00291402 0.047267057 -0.05908285 0.051426433 0.043597978 0.060960777 -0.012264295 0.12820864 -0.18391742 -0.021957003 0.05300765 0.0040636924 0.058187082 0.044214148 0.04448011 -0.15889832 -0.10738616 0.033548526 -0.038794193 -0.035316143 0.09059336 -0.09004697 -0.09698763 0.04560065 0.04294087 0.06036243 -0.027652206 -0.10458345 0.033704847 0.19880925 0.052126773 0.041777536 -0.037954792 0.066061914 0.021043185 -0.027869953 0.022436243 -0.11302135 -0.030774118 0.15885107 -0.0017036417 0.040218275 0.01660963 0.08894285 -0.025929067 0.12911402 0.040229455 -0.022656282 0.0821664 -0.0011017416 0.020562949 -0.11695495 0.003452844 0.048828915 -0.20379639 0.13981178 0.013387032 -0.056809537 -0.08025459
减肥 -0.028419118 -0.024766648 -0.052515265 -0.06404095 0.022881962 0.085306294 -0.054960188 -0.15339594 0.00066475547 -0.06478236 0.010572844 0.033258513 -0.11511204 0.0832997 0.0071822093 0.066085726 0.034815237 0.05129747 0.15657352 -0.14531836 -0.04389155 -0.13660087 -0.061815053 0.036148373 -0.0059232363 0.02348718 0.039878454 -0.025939777 0.12181713 0.054629315 -0.0021187959 0.27232474 0.1485662 0.20212367 -0.04268153 -8.3337865e-05 -0.19643554 -0.061418027 -0.14793244 0.011950547 0.100383446 0.018475944 0.011157382 0.097248316 0.10573512 0.0030640978 -0.02859001 0.107295536 -0.01275318 0.1316377 0.00089872826 0.011326671 -0.063409 -0.09347358 0.093499154 0.12773208 0.1335525 -0.09210131 0.063654706 -0.038272902 0.15739702 -0.060346633 0.010230019 -0.033729892 -0.013213098 -0.0052276417 -0.082061425 0.014520624 -0.16641928 0.09063209 -0.17807668 0.07118403 -0.23565777 0.09863353 0.11650027 0.15014866 0.04563262 -0.044217847 -0.15058652 0.04375937 -0.13686514 0.0015156032 0.13316569 0.2048997 0.046780143 0.1194665 0.037757106 0.02727846 -0.046297926 0.0059513575 -0.20994447 0.073996276 -0.096788205 -0.17655937 0.16113278 0.1685354 -0.0163344 -0.052528393 0.09360531 0.006847298 0.06794137 0.066290975 0.039671533 0.032135513 -0.07892927 0.0025615678 0.015200987 -0.004968542 -0.0052077817 0.023875048 -0.16711012 -0.0778868 -0.07818152 -0.13323133 0.111930855 0.09667887 0.055376235 -0.0068377913 -0.19308442 0.018466389 0.025054127 0.19130558 0.1551131 0.19146368 0.11340269 -0.013649386 -0.094601534 -0.07968873 0.15528241 -0.010099303 0.021409675 -0.05999587 0.016101774 -0.08295355 -0.018895013 -0.09206619 -0.022516288 0.15900613 0.2531937 -0.027922822 -0.088261165 -0.07125873 0.04214207 0.05724085 0.058292087 0.013311387 -0.0367603 -0.08531083 0.019772803 0.058385003 0.18689032 -0.05125519 -0.19761154 0.011980334 -0.06682905 -0.02210161 0.22515039 0.057798676 0.07728138 -0.063102245 -0.03556256 0.11108548 -0.076991774 -0.22245663 -0.07386318 0.0061255475 -0.15009451 -0.04308365 -0.013434414 0.16940945 -0.08303305 0.029028218 0.05198097 0.08734603 0.030136393 0.06383685 -0.038172975 0.1197936 -0.18578994 -0.060231823 -0.02305996 0.07431577 -0.024210136 -0.021239916 -0.09075718 -0.07341719 0.19276215 0.07333843 0.042547833 -0.04128289 0.027763532 -0.04122025 0.13177878 0.102018654 -0.042909797 -0.122752264 -0.052093048 -0.0752261 -0.0859505 -0.13149118 0.115255035 0.014106443 0.11327895 0.020822097 0.15361577 -0.011187106 0.035001595 -0.0521283 -0.1224261 0.0033793692 0.19682105 0.009123196 0.013576343 -0.12929156 -0.10258992 0.11498079 0.061420977 0.024778483 -0.14145854 -0.11019691 0.011495624 0.18843165 0.052918598 0.106823295 0.03553318 -0.053079106 0.09104651 0.020950364 0.09224669 -0.085829176 -0.02315009 0.0549971 -0.23399945 -0.04213712 -0.0430844 -0.09537067 0.043639794 -0.04822922 0.0582263 0.06289563 -0.05020815 -0.025334561 0.033745542 0.22680514 -0.04848631 0.018100563 -0.024945676 0.109045886 -0.10908904 0.08797475 -0.012252076 -0.07315952 0.103984915 0.014839004 -0.005895899 -0.1519021
、 -0.25014406 0.20338605 0.08184892 -0.09153195 -0.08335791 -0.13909873 -0.16057526 -0.21788093 0.25085127 -0.3448564 0.066435635 -0.050520916 0.012544228 0.06137139 -0.001070668 -0.0449304 0.371748 -0.3307056 -0.23650573 0.18086666 0.044881824 -0.07005858 -0.3120669 0.058856156 -0.10766344 -0.3585085 -0.20168191 -0.12016047 0.17991774 -0.050160524 -0.16718367 0.052762482 0.12657788 -0.1898737 -0.04290145 0.19710499 -0.20529018 -0.08682153 0.06382344 -0.118231066 0.07854116 0.06520919 0.111514255 -0.06927699 0.01943947 0.1882024 0.21528013 -0.14008914 -0.030098632 -0.14385556 -0.031854436 0.13689367 -0.010889877 -0.041190702 0.05328544 0.0037918277 0.14420362 -0.05912718 -0.17554781 0.369594 0.33193523 0.241219 0.10292557 0.03865517 0.113750435 -0.24568911 0.18555872 0.01563279 -0.18302226 -0.085439645 0.08565572 0.10181417 -0.1235556 0.2290845 0.2535441 -0.04336175 -0.1345612 -0.15988272 -0.18213618 -0.040848657 0.024657734 0.26328745 -0.17618535 -0.14854735 -0.10782374 0.34499246 0.033336744 0.1491595 0.22921333 0.0676577 -0.053016443 -0.102627344 -0.15489404 0.1771029 -0.016565029 0.18674019 0.19527818 0.047731675 -0.11911502 0.16277145 0.07935743 0.07806613 0.08541756 0.0050251414 -0.022950767 0.007873743 -0.030358868 -0.22858867 0.043240234 0.0145647805 0.049997404 0.08534513 0.039393123 -0.24254283 0.00020217887 -0.03135192 -0.20914833 0.0061395904 -0.13153145 0.045471568 -0.06703179 -0.11724706 0.37596032 0.18850288 -0.20995046 0.2198285 -0.09304329 0.2729733 0.13180259 -0.13908349 0.28903386 -0.028123757 -0.069468275 0.028845275 -0.052128214 0.13301067 0.3659794 0.27031413 0.2968019 -0.071486264 0.06585469 0.0042965873 0.28967285 -0.08122379 -0.20302679 -0.077981636 -0.0048894593 -0.1310701 -0.11860749 0.2403468 0.20683934 -0.19231924 -0.56725276 -0.02986616 0.12812157 -0.08636086 -0.056835983 0.13236615 -0.056550622 -0.08343569 -0.2666864 -0.058494117 0.14857432 0.039164033 -0.25296193 0.18390988 -0.17327365 0.0033083227 0.074817285 0.16144931 0.2505976 0.03235135 -0.09227223 -0.11053936 -0.016469393 0.38385773 0.024843665 0.5177959 -0.31618816 -0.01843907 0.06051466 -0.15734981 -0.3981094 -0.16772161 -0.31555432 -0.10505069 0.180327 0.055223975 0.23419479 0.25432026 0.016773969 0.015085959 0.02914227 0.042443197 -0.17653774 0.1618252 0.34418067 0.23171586 -0.059081893 0.02498089 -0.13501438 0.059114993 -0.10380402 0.06931858 -0.210003 0.0042573786 -0.0293814 -0.08368313 0.23828386 0.12116984 -0.18806027 -0.035773844 -0.30713186 -0.37653393 0.1681255 -0.2067076 0.106357925 0.018624943 -0.44370463 -0.034891278 0.071789294 -0.06519404 -0.10986983 -0.01681977 0.2751563 -0.25224108 0.16509211 0.0083954055 -0.20196629 -0.10082226 0.0016512942 -0.065858126 -0.06349749 0.28332156 -0.07229376 0.12056416 0.23044863 -0.28824377 -0.20346335 0.033728816 -0.034043413 -0.1631414 0.12513246 -0.05889782 -0.025286248 -0.16106327 0.01121668 0.053200684 -0.011715882 -0.12430616 0.11618355 -0.20400953 -0.081334986 0.1269608 -0.03406455 -0.31136772
， -0.066254355 -0.20788704 -0.059241712 -0.2162619 -0.14668678 -0.070114896 -0.14754298 -0.15578195 -0.039196957 0.105302386 0.13546474 0.03892232 -0.14857502 0.16573659 -0.043915085 0.11429182 -0.040074877 -0.017235186 -0.07157146 -0.0028379417 0.09039284 -0.050625604 -0.20618157 -0.070863344 -0.058428798 0.064669535 -0.02657875 -0.024870122 0.14610414 -0.14090124 0.07735889 0.0036531917 0.04733634 0.20402898 0.010584567 -0.065087214 -0.11957716 -0.20376617 -0.053166576 0.039818887 0.047628827 -0.010770357 0.0011823768 0.002894035 0.05488011 -0.05730285 -0.04079138 -0.11990459 -0.13882074 -0.061579276 0.19111025 0.03430828 -0.035202224 0.07412312 -0.022248581 0.07344204 0.19322641 -0.015003937 -0.035444424 0.13182005 -0.035637375 0.0037388285 0.055373587 -0.056827698 0.004601939 -0.23013198 -0.07347464 0.04093472 -0.1525958 0.23481451 0.061287016 0.023284318 -0.090806514 0.033261936 0.079888545 0.13127859 0.042795587 0.019249538 -0.030937938 0.14495355 -0.11238907 0.07720583 -0.087543935 0.15986574 0.26476282 0.08019039 0.050467182 -0.050487664 -0.0892686 -0.09200823 -0.12962309 0.09454475 -0.19773316 -0.17064449 0.015174806 0.13177744 -0.040761217 -0.10357234 0.10734556 0.2334993 -0.15563016 0.11659797 0.04416869 0.13957252 -0.09373359 -0.003826909 -0.05277024 -0.025261082 -0.0019171627 0.030137334 -0.020596705 -0.008423119 0.07127551 -0.07793369 -0.067525625 0.06384535 0.21079707 0.058187913 -0.037699074 0.10947982 0.0013241554 0.10217774 0.053833723 0.030405317 -0.015125242 -0.05918425 -0.09637005 0.112731755 0.060049675 0.06322053 0.034968067 -0.05918062 0.2016093 0.08449764 0.10575634 -0.10110443 0.08039581 -0.019700808 0.04775633 -0.20580386 -0.089064464 -0.023786843 -0.019405004 0.020444464 0.036169216 0.14591509 -0.012424514 -0.10939416 -0.051696505 -0.18861525 0.061307896 -0.030574035 -0.18193293 0.1454914 -0.04141413 -0.026662897 0.11240991 0.09303398 0.073816426 0.10614797 -0.039328046 0.09750372 -0.15770465 0.0117825 -0.009965559 0.2639548 -0.008370237 0.053565316 -0.058184005 0.0141841145 0.025273763 -0.021657277 0.10707862 -0.010051969 -0.060716473 0.27401257 -0.064152054 0.08626918 -0.18212608 0.0396676 -0.114364974 0.11698715 0.012570689 -0.24854252 0.118698746 -0.22584394 0.025772216 0.003623639 -0.08269938 -0.13360007 0.0012562 0.00043172104 -0.016618801 0.1259715 -0.11323289 0.039956447 0.13967632 -0.0035486624 -0.053603545 -0.16282861 -0.027713936 -0.13688448 -0.10006282 -0.009924857 -0.015464008 -0.2046459 0.05616307 -0.048689906 -0.03130535 0.056671888 -0.03432217 -0.0829091 0.057622638 0.055412345 0.17489232 0.05674921 -0.0021830169 0.05890212 -0.13090464 -0.102937125 0.0071764886 0.08738192 0.23270695 0.02619019 -0.030540323 -0.15089835 -0.019087182 0.033592045 -0.032514036 -0.08145434 0.040195663 0.10942296 0.0129114045 0.07889835 -0.011180401 0.0052757394 0.14222537 0.0856483 -0.038154848 0.02407121 0.07995498 -0.059467476 -0.0120786335 0.047244802 -0.043145303 -0.01803807 0.050892595 0.10961419 -0.09987945 -0.026050482 0.1556478 -0.24236256 0.011403951 -0.27609164 -0.000917963 -0.14276864
可以 -0.13786967 0.02803695 -0.2561572 -0.15281056 0.0870631 -0.102272965 -0.047308713 -0.20511611 -0.077334486 0.055249076 0.0670403 0.0062941383 0.057858836 -0.0042656725 0.10570389 0.18537772 0.10097663 -0.2123667 -0.19684447 -0.014666677 0.0773156 -0.10527957 -0.16937956 0.014551295 -0.016299868 0.08798822 0.05686193 -0.14415918 0.21436886 0.06835401 -0.121162094 0.19816932 -0.043989018 0.027485041 0.007554135 0.0014542001 -0.15897019 -0.21441709 -0.011843895 0.012837457 0.02921613 0.16210903 0.022781637 -0.100410625 0.2640569 0.07938331 0.05023539 0.028591303 -0.21502686 0.12966412 -0.09032912 0.08093099 -0.0046724044 -0.072396904 -0.02172302 0.061493203 0.026552852 -0.046703424 -0.0056426455 0.0165943 0.13886163 -0.0033181417 0.034704812 0.006971612 -0.16918175 -0.2637138 0.08670634 -0.06755354 -0.13880448 0.16950907 -0.06720742 0.15684083 -0.026034674 0.18711828 0.12427375 0.031067483 -0.0041493587 -0.008041837 -0.324298 0.10542607 -0.16158868 0.03548469 0.124427475 0.040410943 0.22524194 0.22820783 0.015939178 0.09516784 0.18633379 0.03448949 0.078340925 0.18741034 -0.04460337 -0.09383744 -0.08045357 0.030369256 0.1506973 -0.089450106 -0.0037413053 0.03651789 0.012848137 0.12304549 0.063588485 0.006077755 -0.05349415 0.0076203886 -0.14252003 -0.12027811 -0.035471812 -0.065503955 -0.08023002 0.013268782 0.05508265 -0.31097594 -0.074158005 0.069839805 0.120534204 -0.1066604 -0.10136585 0.2176427 0.058633585 0.104261294 0.25640407 -0.020087633 0.12298038 -0.15101218 -0.02254326 0.21757142 0.21006925 -0.0696805 0.17439312 -0.09464465 -0.011201863 -0.09192656 0.05014359 -0.04846154 -0.034669925 0.1667544 0.28193945 -0.21881503 -0.028339392 0.0988501 0.11599072 0.14272699 0.18197535 0.042706497 -0.07972687 -0.0005514715 -0.076751634 -0.04448158 0.09396728 -0.05103619 -0.33338308 0.013307214 0.018337248 0.09172851 -0.023165127 0.32494435 0.07474888 -0.058365982 0.12914632 -0.0091991145 -0.09235439 -0.2834105 -0.15614113 0.09979502 -0.14007087 -0.08084375 0.07476533 0.21655226 -0.07205337 -0.06205165 -0.14800094 -0.0038980534 0.06213789 0.14186108 -0.12453924 0.2695145 -0.28362787 -0.009903976 -0.19481026 0.007211702 -0.06579117 -0.20204192 0.05255889 -0.21119498 -0.046469543 0.19742514 -0.0068723774 -0.09007488 0.10665833 -0.011737391 0.09281499 0.12611426 -0.06442843 -0.118588544 0.10154937 -0.099552035 -0.0072697424 -0.023763655 0.010908082 0.04739851 -0.026300812 -0.046941165 0.101880156 -0.11535059 0.08621823 -0.0070829443 -0.010534521 0.05612252 0.056452718 -0.1114381 -0.20582585 -0.051394533 0.0528591 0.04335107 -0.026939543 -0.14965738 -0.24138181 -0.20515016 -0.00014070036 0.0345381 0.09402392 -0.0526082 -0.10698888 -0.067301564 0.045024503 -0.013033839 0.02252036 0.013429259 -0.023811761 0.072695814 -0.0719124 0.0037040953 0.03506076 0.037975635 0.056725107 -0.17112076 0.00470895 0.07831725 0.030295582 -0.23495582 0.13687867 0.034737088 0.018389517 0.000590165 0.10505403 0.18079671 -0.016595682 0.12871468 0.22032033 -0.2962315 0.21174817 -0.19567715 -0.15055998 -0.24288957
？ -0.044038143 0.07384728 -0.020360611 -0.057871692 0.046091422 0.07890209 -0.03873405 -0.23107718 -0.15072548 -0.1964083 0.047969963 -0.18763201 -0.13464926 0.009876976 -0.093007706 0.17222391 -0.007260285 0.04119776 0.06634503 0.0098455455 0.002362634 -0.070435934 -0.20394528 0.11032903 -0.064363174 -0.061208267 0.072219655 0.061793733 0.18208778 -0.05241645 0.08834548 0.2394689 0.10871902 0.4010759 -0.02328289 -0.24694799 -0.29368806 -0.25954556 -0.14935374 -0.08021534 0.051373925 -0.09494598 -0.062153377 0.108297534 -0.02380473 0.015439074 -0.14565518 0.009448688 -0.033800516 0.14734083 0.035490222 0.041438613 -0.06225535 -0.13811828 -0.038782157 0.27163514 0.06754128 -0.07609799 0.064003184 -0.020897472 0.2910995 -0.105853684 -0.017563712 0.009923554 0.06701339 -0.029943211 -0.09283571 0.17451294 0.010469104 0.09706733 -0.19970497 0.10368493 -0.21450138 0.19333805 0.13560367 0.15200454 0.0584185 0.0047785915 -0.11572301 0.20082708 -0.23420691 -0.13218114 0.08198463 0.116782375 -0.022492645 0.13777925 0.07813627 0.08446958 0.03306165 -0.010445851 -0.35498846 0.11133974 -0.26378098 -0.027903857 0.13266607 0.0077661606 -0.0072391415 -0.12921387 0.16062084 0.13494165 0.088216335 0.04648693 0.071492895 0.066203356 0.012952971 0.027548699 0.017220708 -0.10867189 -0.02371133 0.13326097 -0.30826753 -0.107954405 -0.024704657 -0.17334057 0.16057885 0.08062468 -0.004614718 0.06814408 -0.20242023 0.01788713 0.15755254 0.15122683 0.12587762 0.25955358 0.16491891 -0.16701853 -0.16517176 -0.18177542 0.2952381 0.072426304 0.17119254 0.026203474 -0.04949868 -0.046940736 0.016755821 -0.1706085 -0.118949816 0.101318985 0.22500628 -0.092712216 -0.1926482 0.014162265 -0.01009225 -0.018470453 -0.014340159 0.053900503 -0.26042566 -0.024601607 -0.16861036 0.035764832 0.24888824 -0.11493422 -0.29852146 0.09321432 -0.012686568 -0.042549767 0.26809543 0.17388766 0.1619607 -0.13641316 -0.0035234967 0.027859636 -0.2801225 -0.16794461 -0.1675195 0.18587032 -0.06973663 -0.034307104 -0.042542808 0.22158866 -0.082449086 0.15025076 0.04061533 0.011751362 0.04026272 0.04337584 -0.0053438894 0.22764237 -0.24311571 -0.26579565 -0.18529369 0.020400675 -0.06705394 -0.014504052 -0.061973535 0.1256585 0.109477684 0.11250205 0.049260616 0.014872214 0.051343028 -0.16563718 0.031722702 0.10955606 -0.14008053 -0.19551891 0.12423339 0.03160422 -0.16750503 -0.21039107 0.16819908 0.17716183 0.19095287 -0.15099706 0.014837009 -0.02097798 -0.0041810493 -0.11171156 -0.23244208 -0.01894322 0.1699704 0.02311144 0.07284783 -0.08351423 -0.16085215 0.14121915 0.107238024 -0.069588885 -0.13123876 -0.10344789 -0.053517945 0.31017542 0.03198345 0.18519163 0.20422937 -0.23598348 0.040256955 0.15824154 0.06889352 -0.06766178 -0.041989334 0.092072085 -0.512315 0.060698908 0.077472314 -0.12652047 -0.02060991 -0.091529444 0.0019952802 0.11671596 -0.10054777 -0.020213123 -0.08875407 0.17588887 -0.0072264806 -0.20247208 -0.047032584 0.13669927 -0.20655994 0.006072196 0.027437067 -0.20192184 0.05930368 0.058213174 0.063271515 -0.31267127
是 0.0049184095 0.12522057 0.15596402 0.021712448 -0.03522564 0.020498706 0.052094147 -0.21066003 -0.043877654 -0.2104678 0.0353732 -0.21129732 -0.13604811 0.055770744 -0.021995077 0.13033731 0.027253574 -0.062124886 0.05820285 0.031014066 -0.026268024 -0.08888971 -0.37934297 0.039694533 -0.019661117 0.014802799 -0.09880233 0.0047992915 0.12449139 -0.055526476 0.08345169 0.1604962 0.09342749 0.26716116 -0.16624814 -0.17142485 -0.20556313 -0.23969644 -0.086725056 -0.11008883 0.024107588 -0.01242256 -0.032752216 0.19720574 -0.095285535 0.10150492 -0.089236826 0.1431134 0.040366374 -0.0041637802 0.09538856 0.0025717178 -0.024591682 -0.0042942115 -0.09837235 0.14661399 0.06482533 -0.09386689 -0.038319536 0.05355634 0.21425219 0.037848752 -0.055371698 0.107952155 0.10646491 -0.075501725 -0.16198564 0.2635175 -0.13303205 0.09228906 -0.0998683 -0.07404051 -0.3141308 0.12662333 0.1611703 0.20689784 0.20433982 -0.09620214 -0.01426271 0.15441285 -0.15290993 0.037026156 0.06735723 0.21122697 -0.05915511 0.103087254 0.0655698 0.024535745 0.003779036 -0.0722843 -0.4590553 -0.07166136 -0.28200158 0.022204718 -0.040149603 0.16587359 -0.05687325 -0.20466825 0.16391258 0.1788844 0.10088248 0.12650947 -0.011733025 0.09230257 -0.16946411 -0.11961922 0.20731917 -0.03417505 -0.09225703 0.07386028 -0.27500612 -0.08134039 0.14161697 -0.058711924 0.086380765 0.056328017 0.00049517816 0.059797563 -0.23051555 0.009317118 0.23867896 0.043799277 0.113798775 0.25415426 0.16523033 0.029004108 -0.1354556 -0.17595325 0.24525563 0.0737033 0.08836605 0.10435459 0.022106227 -0.036723506 -0.021144873 -0.20246537 0.046178646 0.2055897 0.25898996 -0.15364611 -0.13966441 -0.08905259 -0.013549359 -0.15318263 -0.07137601 0.07827886 -0.26215056 -0.08865263 -0.098266244 0.12967671 0.22484155 -0.1822546 -0.22737296 0.11406692 0.052325454 -0.1093686 0.3436205 0.22357287 0.11148178 -0.046888113 -0.050372753 0.0107807005 -0.35427153 -0.07514007 -0.19061609 0.3191437 -0.105013855 -0.012051785 -0.11561573 0.22427453 -0.0052650208 0.17885278 0.10529908 0.030775491 0.07915127 0.13330978 0.09095839 0.10547928 -0.1839183 -0.30302668 -0.2700699 0.11778862 -0.08316264 -0.18342873 -0.086826175 0.09632454 0.19630337 0.14615428 0.08840552 0.06669649 -0.0030219292 -0.10891546 0.009097674 0.056302723 -0.041001644 -0.07786687 0.0061314106 0.07785546 -0.17889471 -0.2884252 0.23685381 0.0822569 0.1590833 -0.12211467 0.012575427 -0.11441665 -0.13389027 -0.048059203 -0.16550583 -0.07741932 -0.035853386 -0.027117474 -0.16746722 -0.16882004 -0.059942365 0.07472699 0.103237174 0.13308012 -0.06677923 -0.10163327 -0.074448146 0.19075243 -0.054841194 0.14127778 0.02783495 -0.22503948 0.13507679 -0.052293573 -0.038980763 0.07076814 0.034411564 0.08583221 -0.44147593 0.09435968 0.024363767 -0.1523047 0.19469534 -0.018999342 -0.039824046 0.054560732 0.0114739975 -0.14692076 -0.21227416 0.12867488 0.028774463 -0.07583716 -0.08762229 0.10807368 -0.111177556 -0.08244459 0.05230257 -0.21071878 0.10411547 -0.019053968 -0.06427344 -0.2246594
有 -0.1433722 0.10533906 0.14216812 -0.13682228 -0.18849814 -0.058861412 -0.10388779 -0.29396105 0.100622855 -0.352767 0.14163175 -0.19222029 -0.0798738 -0.02994823 -0.027303463 0.003085963 0.224565 -0.22282554 -0.22055191 0.19760314 0.100965224 0.041096784 -0.26200682 0.06268826 -0.078304924 -0.18959372 -0.15966041 -0.01862173 0.09333157 -0.05259212 -0.0715707 -0.14634833 0.024345182 0.08370726 0.013505938 -0.02627561 -0.19890532 -0.22469625 -0.016672136 -0.041019715 0.01657581 -0.060667627 0.08971307 0.11265628 -0.06005467 0.06049619 -0.08066488 -0.2878271 -0.039097782 -0.053899582 0.1914207 0.11824425 -0.0017481372 0.031281404 -0.17048714 0.08337424 0.12964158 -0.016809955 -0.20554349 0.21779707 0.19547968 0.11031305 0.008986531 -0.06842779 0.10360286 -0.12435828 0.002271364 0.096055605 0.0045034057 -0.06528586 0.055730585 0.0017573576 0.058549315 0.19306183 0.23173036 0.029737616 0.01130903 -0.08750214 -0.06314347 0.07400057 -0.04624716 0.021634115 -0.19156605 -0.12270753 0.06847904 0.12182748 0.1565761 0.11361399 -0.016601926 -0.06756528 -0.24039806 -0.024133226 -0.14202389 0.12928405 -0.055844508 0.18190818 0.086492516 -0.039284747 -0.16088013 0.25864446 0.032269515 0.14474858 0.061417557 -0.00032392773 -0.042605273 -0.06544644 0.10009809 -0.1649869 -0.004029041 0.17194569 -0.113567494 -0.10705601 0.11183031 -0.09027021 -0.042806394 0.016637838 -0.11377692 0.093128115 -0.03502088 0.03218399 -0.0014810537 -0.12489383 0.11678727 0.13897131 0.042306237 0.07943652 0.008292484 0.053520862 0.053308845 -0.040715918 0.25348887 -0.008301821 -0.007176694 0.05801861 0.03457574 -0.08507976 0.1258424 -0.020122873 0.12103195 -0.09178398 -0.103492714 0.10349417 0.080261394 -0.18599689 -0.15546338 0.09083885 -0.08076839 -0.123136744 -0.14284392 0.036494944 0.19103399 -0.16080809 -0.25307903 0.06261707 0.16671121 -0.13417783 0.020190915 0.06793524 -0.040272888 0.0017607424 -0.12012644 -0.017515602 -0.07140243 0.18114173 -0.19804184 0.20836264 -0.07108816 0.09784609 -0.018131247 -0.036622938 0.11439246 0.106643036 -0.0038496496 -0.15199035 0.029510291 0.32651612 0.10213859 0.3000431 -0.20617598 -0.106045686 -0.02305639 -0.035806794 -0.1627256 -0.12731491 -0.20301574 -0.0015972436 -0.0021322023 -0.0011887678 0.1390015 0.1352438 -0.015931908 -0.09845555 -0.029261306 0.01564317 -0.1296743 0.102444366 0.1990877 0.20688556 0.006703849 -0.10955743 -0.07515186 0.056504436 -0.0679412 -0.084302545 -0.15386856 -0.07840979 -0.06753478 -0.11766074 -0.008120598 0.11739694 -0.15278079 -0.034587856 -0.076367706 -0.101284966 0.07365139 -0.12840584 0.04728386 0.09362869 -0.2550408 -0.084436744 -0.032105822 -0.025501829 0.01303136 -0.0052880147 0.07706277 -0.18161957 0.047425155 0.13919397 -0.20442575 -0.093301356 0.020915285 0.044081062 -0.14329119 0.26489067 0.1341677 -0.019731877 0.058957547 -0.092839904 -0.026937904 0.004360344 0.017869929 -0.08941577 -0.08761171 -0.037067454 -0.02608346 -0.18128596 -0.018176869 0.019028623 -0.09148148 -0.1725728 0.081164986 -0.20005824 -0.04754129 0.036738675 0.013048425 -0.21776116
和 -0.35839713 0.15867877 -0.20204863 -0.13051823 0.049364902 -0.06634266 -0.2274054 -0.22952737 0.07356196 -0.55680186 0.013647443 0.045514066 -0.018967226 0.02683843 -0.053504914 -0.23184626 -0.07600795 -0.06053753 0.10637888 -0.17928767 0.0055054314 -0.08365046 -0.026053805 0.08757497 0.120216385 -0.11873591 -0.2815957 0.12386806 0.2860199 -0.10588513 -0.10901508 -0.10981038 0.27726898 0.0058611855 0.024350716 0.02769874 0.016373023 0.13537541 -0.13860689 -0.07736218 0.018131023 0.102307834 0.05437699 0.123690456 0.08087452 0.017008608 -0.005477343 -0.11555154 0.167728 -0.08497071 -0.27907333 -0.029282443 -0.2230652 -0.067462325 0.04891012 -0.10611461 0.12472165 -0.009002847 -0.099326015 0.11853532 0.21105419 0.054584354 0.13840185 -0.00012003891 0.18853682 -0.1448245 -0.13400944 -0.1695591 -0.24454078 0.043809325 -0.043727014 0.19596909 -0.1298613 0.11597316 0.28843045 -0.049791735 0.14592773 0.19324009 0.09484713 -0.058089767 -0.17810889 0.27675486 0.023582464 0.18456963 0.1648439 0.14783375 0.33995262 0.07447777 0.12011754 -0.14860246 -0.13924815 0.10790333 -0.13698767 0.1174756 0.06348413 0.09283564 -0.051255997 -0.15136425 0.10491907 0.12712874 0.11560405 0.12673518 0.22852723 0.013343526 0.0781411 0.37195683 0.045662783 0.11064101 0.046596404 0.06592402 0.25095832 -0.016369114 -0.09049436 -0.13508339 0.049171045 0.03321852 -0.02065126 0.06095839 -0.018511593 0.21317984 0.05533925 -0.00063550565 0.16280043 0.2179487 -0.17166784 0.01614135 -0.14932467 0.068157025 -0.05233264 -0.15761496 -0.06390686 0.046785977 -0.1292366 0.09029946 -0.025037976 0.10961734 -0.06423175 0.014475272 0.4963336 0.09728582 0.0018762329 -0.14787966 0.09085717 0.16768003 0.03124665 -0.20533581 -0.17564493 -0.022336274 -0.05293423 0.050682053 0.092786215 -0.1565347 -0.49268866 0.02907049 0.185524 -0.34708014 0.1542763 0.13109666 -0.073015444 -0.20769674 -0.031027466 -0.10684859 -0.024456337 0.15092264 0.17134783 0.14041743 -0.20235017 -0.01257667 -0.066074915 -0.11395843 0.07093323 -0.21014763 -0.21125953 -0.06573888 -0.04962557 0.10993422 0.033549756 0.30715692 -0.07975805 0.0060235984 0.14617757 -0.25818133 -0.12525186 0.121864535 -0.011296941 -0.05708174 0.07565187 0.045526925 0.10403846 -0.08395322 0.0010307439 -0.11492484 0.4095513 0.047400653 -0.26236662 0.14936578 0.17963573 0.21326482 -0.07930978 0.08608201 0.10462554 0.10563147 0.19101682 -0.3870047 0.10777093 -0.24619839 -0.0871275 -0.028894639 -0.06775551 0.037975922 0.46587119 0.23171806 -0.24608369 -0.12655105 -0.02176452 -0.16151617 0.0099834185 -0.14937493 0.045093674 0.23968542 0.041870926 -0.066296615 0.2602542 -0.2002431 0.03047763 -0.14238922 0.28111824 0.19140974 0.11957073 0.07497009 -0.16444315 0.10241464 -0.11318839 -0.049762655 -0.0053963424 0.1091666 0.32453763 0.05541182 -0.05626551 -0.30542484 0.11344762 0.17158666 0.12152392 0.20636389 0.09834992 0.026492057 0.12521236 0.07330157 -0.2032438 -0.23017819 -0.033722263 -0.31831387 0.061244454 -0.09212182 0.18708493 -0.20285402
能量 0.22527516 -0.14568643 0.25258532 -0.29915223 -0.15611523 0.52982396 -0.18370306 0.060657542 0.055239644 0.20321889 0.13434951 0.028788675 -0.3412327 0.52637947 -0.03347447 -0.20505223 0.011528134 0.082146354 0.13673656 -0.072106 0.10528105 -0.2762771 -0.039184175 0.051738825 -0.19356148 0.19940847 0.115117036 -0.4980548 0.18969339 -0.15398039 0.108625874 -0.065978006 0.20172675 0.25137815 -0.020109626 0.03798017 -0.09723283 0.05000972 -0.5254435 0.247843 0.12570004 0.111012384 -0.12116465 0.056796994 0.050182126 -0.076117516 -0.095502876 0.2630905 -0.2006935 0.1061403 0.061332576 0.082211494 0.23578008 -0.4243936 0.19154434 0.20224522 0.47709626 -0.5694635 -0.106529236 0.19121961 0.25482416 0.19687271 0.20430775 -0.29034644 -0.30583864 0.006315346 0.102921 0.41260657 -0.2740402 0.15630282 0.030156724 0.16565818 -0.35482153 0.3594664 -0.11177308 0.39298972 0.044613358 -0.21604356 -0.15760364 -0.20241013 0.061936162 0.35333228 -0.06429358 0.4770746 0.0058366917 -0.018623825 -0.16731107 -0.012807068 -0.26204163 -0.05336686 -0.44788566 -0.17694134 -0.04450787 -0.18406695 0.15964223 0.6074908 -0.41891253 -0.18263131 -0.0982159 -0.06521769 -0.36703268 0.12703809 -0.23173192 0.1938914 -0.45420343 -0.068237446 -0.0043204925 -0.06923169 -0.17756593 -0.054233726 -0.2890984 -0.24826455 0.0055461647 -0.025891634 -0.019284427 -0.07060169 0.29705453 0.06096443 -0.35326818 -0.120115384 0.18527287 0.20094098 0.31544182 0.26368052 0.3608174 0.24511284 -0.24639992 -0.09862109 0.37707913 0.034824125 0.08669704 -0.30250394 0.19993715 -0.037270036 -0.07714675 -0.23347065 -0.101711474 0.13891919 0.34950078 -0.00667405 0.090283446 -0.22413124 -0.20407781 -0.049827226 -0.21294786 0.20315921 -0.32460654 -0.26339793 0.08698964 0.17648543 0.43423244 -0.035720326 -0.6202776 0.09330368 -0.096530005 0.03486989 0.1949174 -0.020423114 0.11118612 -0.1014083 -0.15466249 0.13393602 -0.2617117 -0.06744151 0.11768455 0.33466658 -0.35776216 0.08032251 -0.041780476 0.2207129 0.084751405 0.0945337 -0.014770114 0.09210532 -0.14440736 0.09093772 0.21916103 -0.058247827 -0.11252251 0.4042398 -0.17721634 0.23020811 -0.22592375 -0.34169403 -0.07001627 -0.25589252 0.53708637 0.08254168 0.053514168 -0.005627309 0.13121134 0.18460678 -0.0062204394 -0.016020305 -0.30911893 -0.097304985 0.02773512 0.18044996 0.07013296 -0.3685279 0.23229101 -0.1215837 0.14543568 0.43045598 0.0073435255 -0.2004395 -0.15636687 0.19758499 0.046119526 0.33899316 -0.14694104 -0.012301055 -0.028914433 -0.602396 0.12189281 -0.18411337 0.006034471 0.20773229 -0.40389997 -0.43507606 -0.062081777 0.54733175 0.16808277 0.14789799 0.08770384 -0.13371582 0.10619899 -0.13162404 0.19446373 -0.34652373 0.4319931 -0.1260795 -0.29764742 -0.014311004 -0.5187695 -0.03439552 0.30624115 0.091134734 0.1266885 0.13016163 0.24407336 0.11726426 0.19587773 0.30906555 0.07223113 0.03200192 0.038955044 0.024024189 -0.22692312 -0.29129454 0.2142153 -0.2351173 -0.031187037 0.178668 0.1705527 -0.103027135
消耗 0.070663065 -0.034076042 0.27339932 -0.26337597 -0.30336654 0.40410554 -0.17680296 -0.086904846 0.0059539536 0.013641666 0.12365298 -0.028733969 -0.24139424 0.33806497 0.044107497 -0.11899473 -0.03934189 0.025493482 0.15259959 0.023701362 0.10382831 -0.12199813 -0.14638205 -0.03127451 -0.062282443 0.0894557 -0.097861186 -0.42093438 0.19017608 -0.16674076 0.07854043 -0.3519915 0.22241369 0.11313321 0.05201209 -0.1675589 -0.08256136 0.11160134 -0.41535074 0.052986063 0.12110962 0.14427707 0.0018893767 0.0025285443 -0.011158998 -0.0850799 -0.1454888 0.01179224 -0.08714082 0.073958196 0.1311597 0.016045926 0.19916613 -0.23977423 0.10615252 0.14190076 0.25975835 -0.43063343 -0.047587797 0.20764568 0.07268958 0.23782489 0.11554168 -0.15968633 -0.26393119 -0.091792345 -0.045859106 0.32823437 -0.055249076 0.10004493 0.14741355 -0.021789826 -0.21735232 0.2405465 -0.21076779 0.4194024 0.023720546 -0.14970593 -0.06287419 -0.20263517 0.06203636 0.35445663 -0.12528408 0.40931964 0.09292597 -0.044298664 -0.107376374 0.007618785 -0.21290623 0.024389219 -0.39743257 -0.1700388 -0.08324164 0.09495314 0.062660865 0.4610704 -0.33461797 -0.21859731 -0.12987237 -0.0104601085 -0.26376906 0.16735554 -0.2619027 0.13779736 -0.31293276 -0.005487514 -0.025949653 0.026632866 -0.20363814 0.12310456 -0.27749255 -0.24272998 0.11571709 0.11076175 -0.19481401 -0.046084378 0.22756186 0.03420037 -0.16329037 -0.19598952 0.21266395 0.056722715 0.1749154 0.33032975 0.20927276 0.21344858 -0.28534988 -0.031441588 0.23433404 0.07118348 0.15564337 -0.33141893 0.20638523 0.1262185 -0.09201149 -0.1727099 -0.15048844 -0.06011259 0.22411172 0.06353732 0.14671917 -0.17945862 -0.15985811 -0.08496245 -0.290967 0.21338715 -0.40676132 -0.18827815 0.054633286 -0.07309795 0.3747485 -0.09351958 -0.51452285 0.05093735 0.02412207 -0.12782374 0.20089562 -0.06808543 0.068709694 0.028600467 -0.061930552 0.06713038 -0.34289017 0.14807475 0.091652885 0.2734993 -0.16058499 0.1932606 -0.09664868 0.039954565 0.20839758 0.05937052 -0.07645113 0.019314606 -0.23251718 0.23549812 0.16706552 -0.044037748 -0.07056095 0.39369145 -0.10574343 0.27174002 -0.1619579 -0.32909572 -0.0046691867 -0.11047797 0.322023 -0.15678282 -0.10487306 -0.021940341 0.118365094 0.1884096 0.019043962 0.027253846 -0.33453616 -0.0035309626 0.1678495 0.2365069 0.009091663 -0.13510196 0.17888433 -0.23592032 0.029843386 0.30286255 -0.14019556 -0.18207473 -0.19728626 0.22625959 -0.003894378 0.4262588 -0.22364463 0.0704162 -0.036450565 -0.22933005 0.12602465 -0.19964671 0.029571656 0.15063708 -0.2080576 -0.32682812 -0.0005215921 0.35095242 0.25646234 -0.0058911387 0.11243578 -0.11534163 0.03793324 0.011697391 0.054398093 -0.285657 0.3635859 -0.1888651 -0.12515762 -0.043791655 -0.4329195 -0.007505888 0.20976853 0.16105835 0.06797742 -0.011256096 0.15147875 0.22912957 0.037578627 0.2200933 0.06268771 -0.059144717 -0.064373374 -0.007780735 -0.014459707 -0.25828314 0.20170166 -0.20250776 -0.14789638 0.13298728 0.15374121 -0.03772152
食物 -0.1400937 0.16553594 -0.007462856 -0.38658747 -0.16163741 0.050672222 -0.14529039 -0.2505797 0.036263045 -0.23327774 0.2510273 -0.13900013 -0.109136865 -0.020168502 -0.015589735 -0.14499341 0.09537161 -0.3201878 -0.3241544 0.17079967 0.3012809 0.03633091 -0.13319457 -1.7933406e-05 -0.12923022 -0.020324148 -0.10378925 -0.25196528 0.21707155 -0.18718578 -0.2667792 -0.37607726 0.17693141 0.021192681 0.21603866 -0.074994 -0.16345297 -0.13966021 -0.17526549 0.034837812 -0.026845435 0.18614309 0.023509854 -0.013233907 0.14248759 -0.0117324125 -0.09688972 -0.2581963 -0.034615632 0.06474044 -0.02116437 0.14830185 0.076805346 -0.09348382 -0.13310896 -0.096893236 0.09579581 -0.19761807 -0.3299079 0.2897321 0.28043276 0.22612174 0.1749862 -0.23025875 -0.08973356 -0.3498623 0.124486595 0.076268025 -0.032971133 -0.07235935 0.09156848 0.20793864 0.24046141 0.333465 0.20423065 0.08332804 0.015764691 0.08990967 -0.17755581 -0.07255142 -0.026361076 0.16638228 -0.16094829 -0.08486024 0.27051225 0.15500079 0.11595134 0.16596384 0.1255568 -0.16150126 -0.136823 0.050296385 -0.14664929 0.1729287 -0.16868617 0.26292354 -0.07519697 -0.09680843 -0.22903156 0.20919198 -0.15988304 0.18158434 0.10503664 0.0022012112 -0.16328575 0.15117519 -0.033878997 -0.23355049 -0.16856445 0.16687483 -0.054104693 -0.21144088 0.098221935 -0.078048766 -0.2083258 -0.049889598 0.033651322 0.06457213 -0.014563115 0.12526801 0.124056704 -0.070138596 0.16591993 0.12154909 0.22393377 -0.015486157 0.005699267 0.21802557 0.07564988 -0.10554292 0.23859921 -0.19770525 -0.120854035 0.07464258 -0.017731007 0.005548406 0.0033558903 -0.10385139 0.2751768 -0.07433574 0.037622344 0.08532934 -0.010210831 -0.07456092 0.023372594 0.19096653 -0.25436234 -0.077078596 -0.15677322 0.049475715 0.1819346 -0.16308057 -0.4927594 0.06046436 0.2902951 -0.13020691 -0.032058127 0.15703793 -0.10648079 -0.19263797 0.0150696365 -0.06401512 -0.14618604 0.17674516 0.0009475754 0.3481342 -0.18717103 0.12545918 0.05612853 -0.17243719 0.19725983 -0.13632336 -0.33175057 -0.19656494 0.056810427 0.35596743 0.14814386 0.29796335 -0.15043224 0.13520795 -0.038649265 -0.25217238 -0.14980157 -0.24480997 0.043351203 -0.058160763 -0.029918656 -0.027993388 0.114898376 0.117695324 0.0582251 0.013285343 0.06393644 0.012141035 -0.29650816 0.2177503 0.36400867 0.30174777 0.17383674 -0.079059154 -0.005033977 0.08432498 0.02147484 -0.18475525 -0.10004809 -0.20808886 -0.055837475 0.1800469 0.044839878 0.26994246 -0.11348882 -0.0098947715 -0.23893347 -0.060508914 0.22607893 -0.33735603 -0.13136747 -0.02222418 -0.26178405 -0.09836586 -0.043661278 0.07813008 0.20398633 -0.1846376 -0.011031198 -0.13977267 0.1874761 0.26868004 -0.08387281 -0.05852266 0.18776304 -0.087659985 -0.04113866 0.04312996 -0.039048605 0.13419732 0.1730402 -0.030320846 0.03322346 -0.0761412 0.2223373 -0.06582153 0.2353373 -0.021702597 0.023548592 -0.14802617 0.25260863 0.03101088 -0.12103231 -0.34925044 0.21864425 -0.49416554 0.09683335 -0.06005306 0.12472129 -0.18991539
摄入 0.092176124 -0.026152715 0.11959727 -0.13649899 -0.0662619 0.13755052 -0.009485946 0.03141347 -0.04247639 -0.050703604 0.23658772 -0.1436378 -0.24528518 0.13649268 0.0071364874 -0.05301202 -0.005703979 -0.31661105 -0.09136645 0.09955144 0.26590145 -0.045042884 -0.27023172 -0.054836165 0.050826654 0.2660672 0.0034074266 -0.3276326 0.15039422 -0.3134121 -0.1915024 -0.2107737 0.06764894 0.12922554 -0.09271136 -0.28159684 -0.088519596 -0.06193676 -0.3728886 -0.04941996 -0.010593586 0.23762047 -0.063054085 -0.0425144 0.12888591 0.0877844 -0.13121766 0.11521355 -0.065845504 0.04396748 -0.08007552 0.19258086 0.16518757 0.037722036 -0.16221978 -0.045169745 0.17603102 -0.29500878 -0.102600396 0.140868 0.33292165 0.09128934 0.3499076 -0.13527212 -0.14354895 -0.2572319 -0.1546402 0.398408 -0.25668794 -0.049121622 0.17204401 -0.13280892 -0.22692008 0.2080628 -0.088798404 0.3747681 0.12481848 -0.17750028 -0.11727281 -0.084219985 0.1953681 0.30226356 0.028702715 0.117761396 0.13289721 0.11273852 -0.36494976 0.014979972 0.17868647 -0.10786283 -0.15759204 -0.0725298 -0.3169737 0.029391436 -0.17394759 0.31092703 -0.25095147 -0.17039938 0.106644474 -0.030203559 -0.11576886 0.2678316 -0.30702934 0.15627381 -0.297203 -0.042911492 0.05666717 -0.079373695 -0.28212926 0.036637943 -0.27800405 -0.14994504 0.13697502 -0.00850157 -0.16201271 -0.11181854 0.14724633 -0.07711096 -0.09758897 0.03629264 0.2991572 0.041508656 0.26182702 0.28605348 0.35231608 0.18752278 -0.26028183 0.097792014 0.3647968 0.05499996 0.15371826 -0.21817894 0.029077653 -0.027228786 -0.19988506 -0.10819036 -0.06121469 0.05178269 0.2284539 0.01613438 0.12038294 -0.09982303 0.04795109 -0.08728471 -0.10358664 0.21548927 -0.39750344 -0.025667485 -0.018260375 -0.03361217 0.28124565 -0.14489166 -0.27809432 0.09158462 0.20822011 -0.010540169 0.08133629 0.18377006 0.101314515 -0.083038606 -0.071794674 -0.109715834 -0.3089581 -0.0924957 -0.09034284 0.4037419 -0.1268814 0.052063342 0.0239702 0.12390166 0.1827612 -0.19818813 0.0076669017 0.1642667 -0.006968596 0.2042383 0.17942429 -0.08465529 -0.07753377 0.10427102 -0.31492123 0.020493923 0.0274047 -0.44225192 0.012283707 -0.09778949 0.37253055 -0.009412529 -0.050351523 0.053101424 0.0021928058 0.0065595927 -0.025864368 0.080682375 -0.10515481 0.046265915 0.27389476 0.22552305 0.086818755 -0.2681399 0.17051403 -0.058590423 0.020233998 0.22146441 -0.02962738 -0.1682525 -0.19020087 0.3995732 -0.024179209 0.24335352 -0.3421593 -0.07887879 -0.25439507 -0.20975702 0.14810762 -0.27622908 -0.07865824 0.2541115 -0.28567722 -0.32672295 0.09562029 0.27579093 0.09819981 0.029199796 -0.10510021 -0.30368015 0.06848817 -0.06807224 0.0470284 0.018108614 0.31312224 -0.09888096 -0.21451046 0.11111542 -0.29655567 -0.13904259 0.2661743 0.010745483 0.09149539 0.15214595 0.19993101 0.011916437 0.07471819 0.16910544 0.087205745 -0.018013712 0.15833575 0.167899 0.0707994 -0.33960035 0.17419025 -0.3513155 0.14566736 -0.009698187 0.12478073 -0.15770145
会 0.29248062 -0.117769524 0.16823481 -0.1043576 -0.094924755 0.36637428 -0.25389192 -0.02452658 0.082231164 0.23788847 0.2744953 -0.07065276 -0.22961664 0.4017941 0.06634692 -0.077438354 0.08587235 0.056418497 0.18932605 -0.08829664 -0.01539517 -0.2394276 0.018992782 0.16224964 -0.044692945 0.2899528 0.095686495 -0.2215891 0.2639124 -0.13529715 0.01327923 -0.1942079 -0.10871797 0.2336432 -0.19049136 0.01445011 0.21133742 -0.13408464 -0.31978986 -0.0012410831 0.15202302 -0.067459695 0.09587044 0.16350637 0.03770779 -0.19132303 -0.13277048 0.21072194 -0.28033942 -0.014182036 -0.024257936 0.098152 0.18310319 -0.13059857 0.053093594 0.16196837 0.52084196 -0.35909393 -0.14201075 -0.031494863 -0.052798294 -0.16559017 0.2133972 -0.14232188 -0.13232791 -0.09700645 -0.081596635 0.17932078 -0.5150475 0.1338493 -0.16790594 0.08623097 -0.38355267 0.27118215 0.14552468 0.30619878 0.019561829 -0.28368184 0.092220575 -0.06726347 -0.019574458 0.14942893 -0.06568135 0.597499 0.02493661 0.09220982 0.065006875 0.014588099 -0.19406568 -0.07242427 -0.43721643 -0.060788605 0.0900779 -0.32497004 0.030771147 0.5456417 -0.2826276 -0.28285983 -0.10173187 -0.039280083 -0.15320441 0.28149167 -0.31454945 0.19359195 -0.3645597 -0.11820169 0.08535965 0.046561603 0.039305154 -0.17833239 -0.024809642 -0.23604773 0.12487911 -0.149826 -0.116822414 -0.14102498 0.263434 -0.021004833 -0.052497737 0.08195289 0.07195024 0.1593889 0.23079182 0.013249814 0.14044185 0.14077266 -0.10614659 -0.17157933 0.24619955 -0.026267463 0.042373426 -0.15512364 0.21737655 -0.1434191 -0.11205684 -0.22459933 -0.24670334 -0.0667739 0.26538298 -0.16264488 -0.022225013 -0.2328232 -0.05280975 -0.0014496668 -0.21121533 0.034206588 -0.19068246 -0.34768152 0.15563087 0.040094946 0.36771002 -0.011702525 -0.4606415 0.22711714 -0.14673315 -0.028037326 0.10683796 0.07032496 0.16704336 0.08823266 -0.07737118 0.023313088 -0.049059406 0.07338909 0.21409872 0.19467254 -0.26275948 -0.074132495 -0.30282444 0.33841723 -0.21827164 -0.02836908 0.048890926 0.06349555 -0.14050221 -0.17138827 0.16090986 -0.17211303 0.17275782 0.24702154 -0.2748564 0.33159247 -0.17844236 -0.17665806 0.11172432 -0.34701145 0.30420515 0.20496345 -0.019112427 -0.25326103 -0.07798793 0.20287588 0.0164113 0.043265745 -0.13423319 -0.118566826 -0.10500318 0.24199519 0.026484326 -0.41761848 0.21625406 -0.12318861 0.034945223 0.10315925 0.20780234 -0.2364217 0.025934413 0.031822138 -0.08688925 0.09095985 0.072551504 -0.07263273 -0.11114306 -0.46574888 0.275773 0.024833176 0.14817563 0.22760297 -0.22389111 -0.5170097 0.07855829 0.14917365 0.17464082 0.16829698 -0.2603118 -0.105956756 0.09046962 -0.43132785 0.261102 -0.26924136 0.37257522 0.2774223 -0.05418396 -0.051204547 -0.1502935 -0.0446772 0.22670805 0.37390152 0.0104068285 0.044193137 0.46713144 0.17826667 -0.1374214 0.25211084 0.2657147 0.13229625 -0.079728454 0.16127197 -0.19085778 -0.2676225 0.21751173 -0.18627615 -0.053919915 0.033435885 0.076444514 0.066679984
热量 -0.21790382 0.10546708 0.024195593 -0.33890364 -0.29650477 0.07609739 -0.18202943 -0.27208796 -0.14015278 -0.286278 0.28739613 -0.12134466 -0.13034649 -0.08127141 0.066864096 0.017396942 -0.0967156 -0.22930107 0.023810795 0.07455569 0.2283406 0.021447254 -0.2549257 -0.016378725 0.05625134 0.0771872 -0.04384637 -0.25768605 0.27641392 -0.29814845 -0.19895522 -0.44785443 0.11659117 0.13008209 0.21032621 -0.4706656 -0.088476345 -0.11383672 -0.22829194 -0.24141744 0.061535917 0.16699778 0.049200352 -0.07238145 0.13634804 -0.124238715 -0.10726741 -0.2761525 -0.016804459 0.07454333 -0.06811872 0.10779846 0.05356652 0.092022195 -0.019243008 -0.01653911 -0.023411399 -0.16141427 0.0023604005 0.1266863 0.07773278 0.11971854 0.10190215 -0.06557444 -0.18662213 -0.48007983 -0.16755536 0.19048783 -0.074655525 -0.058069155 0.061097246 -0.094277404 -0.10425882 0.09536106 -0.011130541 0.22510998 -0.02443078 -0.007705381 -0.05520864 -0.012614514 -0.12502596 0.08359974 -0.100624934 0.08228263 0.28875148 0.19872999 -0.052573234 0.14908248 0.18869328 -0.037559986 -0.12022385 0.07897798 -0.27391532 0.31361085 -0.067763664 0.17787549 -0.2412451 -0.16083544 -0.055645797 0.11843714 -0.03685266 0.30443949 -0.12428288 0.06909594 -0.027277742 0.27182758 -0.15134566 0.04683905 -0.23934746 0.24535032 -0.161275 -0.21838774 0.11642925 0.110377796 -0.35011548 -0.110732414 0.115230724 -0.08812478 0.048800107 0.072452955 0.17226337 0.09300916 0.14375082 0.3008177 -0.016405715 -0.07615304 -0.33193567 0.102360204 0.15718046 0.07169976 0.1897033 -0.33763394 0.117598444 0.08772214 -0.13979974 0.027449789 -0.18493102 -0.25402373 0.1603309 0.042652708 0.124957636 0.058324147 0.15725946 0.05212704 -0.11522861 0.14718227 -0.47495303 -0.017940389 -0.087660834 -0.2749574 0.30968034 -0.17260246 -0.42550904 0.071968846 0.25408474 -0.2149592 0.2701083 0.085433446 0.054625876 -0.11207704 -4.319936e-05 -0.083287336 -0.2902607 0.21931097 0.06200748 0.30811235 0.026560508 0.14665933 -0.09039672 -0.052737847 0.17512806 -0.20214754 -0.24403872 0.011290858 -0.1199985 0.3418341 0.047680993 0.10517116 -0.03516 0.050371595 -0.11847817 -0.068697035 0.01585108 -0.31638503 0.12371791 0.015495261 0.024944857 -0.31963807 -0.25003213 -0.039738182 0.008625051 -0.048650097 0.108174846 0.28949812 -0.24327043 0.06877906 0.4568151 0.3515584 0.018958807 -0.018264437 0.15050544 -0.09807461 -0.045458727 -0.09365577 -0.1135254 -0.010586138 -0.10841696 0.28956684 -0.121325865 0.29850292 -0.040166087 0.022011125 -0.087462656 0.1864956 0.14859383 -0.24454376 0.052632052 -0.14946628 -0.14824644 -0.15818512 0.1108807 0.279894 0.4364401 -0.18988112 0.1290627 -0.26096943 0.042300683 0.17886573 -0.11649161 -0.101755425 0.12605329 -0.12541349 -0.11749033 -0.11140262 -0.12773238 0.02373823 0.0688715 0.10751116 0.016992887 -0.037335683 0.13550779 0.13974708 -0.04884459 0.1644262 0.059521742 -0.1415062 0.1397758 0.20018762 0.11099695 -0.23838188 0.20013434 -0.3018505 0.00061725837 -0.07957562 0.20851915 -0.09028796
低热量 -0.1623599 0.17556691 -0.050867356 -0.41049588 -0.14224997 -0.013195043 -0.18259253 -0.24715523 0.06319704 -0.2527394 0.25370014 -0.12994619 -0.111281656 0.0056137773 -0.0483236 -0.18275072 0.09679596 -0.2873476 -0.40956512 0.14701796 0.2809381 0.040983032 -0.19843191 0.04014504 -0.18301228 -0.09855376 -0.0887103 -0.20422493 0.22950771 -0.20122792 -0.18044606 -0.2791262 0.18613356 0.034135953 0.23069064 0.005022656 -0.16301766 -0.18674381 -0.07093883 0.11152655 -0.0064417743 0.1738745 -0.014696408 -0.018350422 0.13729152 -0.011262805 -0.05483834 -0.29527685 -0.038013674 0.02951858 -0.019625371 0.16684371 0.035953037 -0.102344155 -0.100431375 -0.1028807 0.12983534 -0.14199248 -0.3812038 0.3302672 0.3021417 0.2487996 0.12238273 -0.22489236 -0.017646272 -0.381231 0.21787809 0.05170949 -0.057076108 -0.045487374 0.05986168 0.31076613 0.22392248 0.3041391 0.32445842 -0.044730853 0.03897903 0.16046464 -0.18669936 -0.03851251 -0.09429 0.17672195 -0.24890423 -0.099348836 0.28693432 0.16049238 0.21483557 0.18839015 0.104557894 -0.20065631 -0.16033097 0.109734595 -0.144336 0.105639644 -0.17033571 0.2823741 -0.04173016 -0.08596509 -0.20427552 0.33364233 -0.1533844 0.14424428 0.22800513 0.0004151259 -0.14425398 0.19374079 -0.08369161 -0.30308753 -0.14049678 0.15829231 0.039081704 -0.14999466 0.062111054 -0.13660152 -0.14366834 0.0062388857 0.023747027 0.11614086 -0.021625645 0.21800178 0.08242101 -0.061504062 0.15183769 0.05217189 0.15472175 -0.07155421 0.05622279 0.23504367 0.045299824 -0.1092699 0.2073499 -0.1441432 -0.13131516 0.04883569 0.0019162925 -0.0058524357 0.090248406 -0.042343315 0.28874084 -0.09940286 -0.009432896 0.10166642 -0.018297821 -0.05153814 0.071478374 0.20202328 -0.22611184 -0.076029286 -0.22801416 0.07995417 0.091192015 -0.14726779 -0.54318506 0.09191944 0.2705743 -0.16796191 -0.014556061 0.23785731 -0.1535817 -0.22877249 0.011539629 -0.06463483 -0.116306916 0.20221151 -0.016163208 0.43891054 -0.22255583 0.07394144 0.102465145 -0.18292736 0.18657552 -0.10728638 -0.29768524 -0.22323859 0.17724253 0.34951693 0.14344947 0.41262478 -0.16654432 0.04330711 -0.037059944 -0.3577608 -0.22426833 -0.25064638 0.058779348 -0.11594809 -0.10773028 0.08109548 0.17043628 0.13167782 0.101973996 -0.059824534 0.054555796 0.037697908 -0.3210818 0.2754128 0.34724557 0.31117475 0.13698132 -0.12125082 0.0030784183 0.13298607 0.035636574 -0.31889614 -0.08133869 -0.24859235 -0.0047287075 0.0670007 0.09696154 0.18850206 -0.020652354 -0.016210914 -0.2351721 -0.10835768 0.267055 -0.31781718 -0.13024741 -0.027205076 -0.258718 0.042736776 -0.08453641 0.11435138 0.21133257 -0.1983285 0.0036079544 -0.20313597 0.1988948 0.2817946 -0.1378197 -0.02810398 0.13346519 -0.006089021 -0.10306981 0.052630305 0.048492692 0.19134225 0.2605173 -0.035197165 -0.003951316 -0.1073175 0.23327754 -0.14797337 0.2920168 -0.05356837 0.0055907685 -0.16475938 0.3500618 0.0029686126 -0.25702092 -0.39209306 0.21798675 -0.5319517 0.13191961 -0.17447361 0.12027641 -0.23543541
脂肪 0.24950063 -0.046367668 0.27572948 -0.11559467 -0.113329425 0.50974095 -0.10867681 0.0060086027 0.041129388 0.11877966 0.05695643 -0.07060708 -0.34356785 0.4562891 -0.029339375 -0.092815556 -0.014443631 0.20428987 0.2750744 -0.0927787 -0.028984915 -0.23439609 -0.09360644 0.11444379 -0.17990811 0.07966137 0.069827 -0.30394742 0.19904868 -0.10269473 0.19576581 0.045721874 0.22636424 0.3737439 -0.101060264 -0.07215804 -0.17112105 0.0040371637 -0.47859687 0.09550579 0.11686885 -0.06603535 -0.1098945 0.15166266 -0.099387504 -0.09637922 -0.13127942 0.29399103 -0.081097886 0.08394589 0.111259274 0.004810169 0.17156093 -0.41950247 0.14888063 0.29075152 0.38633963 -0.44985515 -0.029865313 0.10290434 0.19305371 0.07478906 0.10225615 -0.15351094 -0.09716186 0.13691358 0.01585095 0.44133857 -0.1900979 0.15497696 -0.09276726 0.11130811 -0.4360122 0.30157644 -0.09414354 0.39343593 0.066350445 -0.20231006 -0.062509455 -0.08363961 -0.0038153948 0.22260368 -0.0139966225 0.51067847 -0.15638661 -0.04143669 -0.10584525 -0.01826095 -0.23829849 -0.023212662 -0.58508706 -0.17865086 -0.14769128 -0.15307285 0.21439205 0.4562063 -0.358741 -0.24175042 0.04560789 -0.04985564 -0.17608643 0.049004544 -0.17661114 0.19914801 -0.34918723 -0.09826417 0.10258547 -0.0701111 -0.10923 0.010340303 -0.363322 -0.18825273 -0.008406575 0.018221678 0.10521937 -0.02683902 0.19284849 0.08104327 -0.36098477 -0.22038928 0.27233195 0.20022951 0.24748091 0.34781262 0.3247655 0.18678418 -0.24117059 -0.27831137 0.36937112 0.084358945 0.08616156 -0.14472675 0.13180435 -0.034572896 -0.05932485 -0.27312624 -0.11949387 0.15228142 0.3107773 -0.029547585 -0.015765544 -0.2815854 -0.22221546 -0.10441679 -0.2659666 0.1684676 -0.37941247 -0.24561448 0.058183987 0.21517597 0.40930447 -0.049145427 -0.5403415 0.09544606 -0.13380791 -0.012785871 0.30485535 -0.0037747305 0.16820545 -0.09019813 -0.122352675 0.1614789 -0.33953977 -0.06998348 0.05747634 0.29046214 -0.25028107 0.05196465 -0.12243388 0.28415066 0.00034282403 0.23925804 0.06501269 0.088003665 -0.14673552 -0.005482642 0.17561665 -0.01420012 -0.067258745 0.18197933 -0.1916406 0.292585 -0.24429223 -0.14664528 -0.122725464 -0.032440618 0.5270876 0.117334165 0.071929395 0.016291017 0.08157134 0.11326017 -0.047989924 -0.047322232 -0.25877127 -0.1848013 -0.032431975 0.15274128 -0.070687816 -0.3339818 0.27510327 -0.031179667 0.22363207 0.2571439 -0.04086415 -0.15222065 -0.12019071 0.09777915 -0.09388366 0.20463677 -0.06681439 0.03151219 0.035881177 -0.49114576 -0.048172165 -0.02793251 0.07632136 0.19056195 -0.25280517 -0.35818747 -0.04748381 0.5506638 0.037761863 0.3063194 0.17737617 -0.116320334 0.11469316 -0.09367248 0.2286319 -0.3075632 0.37048197 -0.050390415 -0.4558082 -0.03636111 -0.38172805 -0.13608643 0.26595208 0.08164344 0.047397103 0.12585725 0.102993414 0.16175178 -0.0028893964 0.29487616 0.05280629 -0.047293015 -0.1401852 -0.0008749714 -0.25686803 -0.19696122 0.103654034 -0.17065091 -0.12121304 0.27182245 0.12788638 -0.1434719
营养 -0.24127981 0.20351431 -0.048619777 -0.5495806 -0.18980478 0.04397041 -0.24847949 -0.2537382 -0.046882626 -0.252168 0.23936215 -0.114725895 -0.07758619 0.042604476 -0.11823195 -0.15880597 0.0037052678 -0.16594234 -0.33178487 0.10433594 0.1987829 -0.042837735 -0.1582083 0.051451933 -0.24354412 -0.12487457 0.022750521 -0.21634682 0.29588717 -0.17377065 -0.047608726 -0.21628325 0.1931656 0.12215007 0.3608062 -0.02960733 -0.16036205 -0.25024825 -0.04057009 0.1613268 0.042276844 0.10372452 -0.10870472 -0.0012559025 0.07767985 -0.077791445 -0.043168336 -0.3285103 -0.08199041 0.08164355 0.014450304 0.10531484 -0.003929558 -0.22177124 0.027741624 -0.009365517 0.13976331 -0.14139499 -0.32186848 0.29575753 0.26474646 0.24918701 -0.02781569 -0.26582056 -0.1186715 -0.3863426 0.30052269 0.060520943 0.053312793 -0.0141004855 0.025457278 0.3786893 0.13810737 0.26882854 0.3289698 -0.07000878 -0.016818264 0.19897123 -0.14340498 -0.024598608 -0.24168205 0.055145107 -0.29563716 -0.013870947 0.28597522 0.15655443 0.34259185 0.19703612 0.036392353 -0.13432541 -0.20412901 0.14853455 -0.10372675 0.18830167 -0.05546505 0.2260134 -0.10554155 -0.09235693 -0.22736692 0.38477188 -0.22382438 0.11444499 0.2339738 -0.019562786 -0.052372444 0.26564023 -0.1812721 -0.26071122 -0.16661522 0.21368442 -0.0069782496 -0.18584867 0.07222552 -0.13930784 -0.1502254 -0.00465539 0.09301371 0.17234254 -0.06906028 0.23639463 0.038257126 -0.0030448383 0.11573646 0.04137161 0.068853654 -0.22177802 -0.010013367 0.15394679 0.06300947 -0.11398366 0.21892303 -0.17170717 -0.036825493 0.032711126 0.14685617 -0.024042059 -0.018406065 -0.07036269 0.28470442 -0.11671523 -0.045473013 0.15201305 -0.08439452 -0.0041238414 0.04630759 0.17512088 -0.30448198 -0.10960477 -0.2738381 0.007792234 0.13216704 -0.07253077 -0.6379562 0.17808196 0.18171103 -0.18484373 0.09332939 0.2295601 -0.10346335 -0.23731229 0.03247728 -0.0125292875 -0.16938742 0.24287382 0.02308013 0.45407292 -0.21279047 0.08473566 0.0460955 -0.1916575 0.17081901 0.036747884 -0.2930444 -0.2315631 0.10519517 0.31617126 0.13014215 0.45379472 -0.18007866 0.026050977 -0.0598958 -0.3487252 -0.2727303 -0.21973363 0.07597523 -0.07490311 -0.19435176 0.039938908 0.11720996 0.10043363 0.15844133 -0.11135619 0.04641254 0.08250022 -0.41333047 0.22798753 0.35435796 0.32247755 0.0795671 -0.13320646 0.07253833 0.18145789 0.08907091 -0.3574132 -0.058620527 -0.20211166 0.024219299 -0.040434863 0.015183254 0.24957576 0.14913334 0.004003385 -0.11675548 -0.102319054 0.2432211 -0.27471006 -0.096780084 -0.22608899 -0.21062383 0.07513209 -0.17440878 0.2156563 0.32005447 -0.2419665 0.123024724 -0.23592618 0.15203768 0.33946717 -0.15509345 -0.12811336 0.06061363 -0.022233482 -0.22847523 0.021254513 0.063775934 0.2563588 0.18452446 -0.0018896929 0.018008176 -0.109965324 0.23627411 -0.11408808 0.25381258 0.019535106 0.03372368 -0.20758107 0.34682435 -6.984515e-05 -0.38573396 -0.3568272 0.2524911 -0.48262632 0.09647569 -0.1811341 0.1314936 -0.27657822
等 -0.30426264 0.16754454 -0.20494832 -0.09930237 -0.061332278 -0.20815082 -0.16616799 -0.36719108 0.19782977 -0.25845438 0.20467687 -0.10309021 -0.02499982 -0.06660435 0.03810331 0.074797936 0.34500983 -0.515297 -0.21143937 0.07031039 0.1204354 0.089177266 -0.15405628 0.034630384 -0.0040537403 -0.16531566 -0.09998057 -0.09323683 0.24769858 -0.0023159357 -0.50649726 0.014084881 0.14866465 -0.14805831 0.07276013 0.047997393 -0.27865112 -0.04637922 -0.07296502 -0.17528722 0.084414124 0.15321691 0.2662389 -0.055750307 0.2901907 0.11045079 0.15842874 -0.270451 0.051388845 -0.050626732 -0.11670606 0.15739037 -0.032715708 0.13959822 -0.074282944 -0.09799413 0.07010564 0.09411806 -0.23396392 0.2173881 0.39766255 0.15563476 0.26951933 0.08884699 0.15187955 -0.3313839 0.025225082 -0.06860235 -0.34534365 -0.20349662 -0.09688072 0.0476791 0.10284609 0.11827791 0.3937891 -0.0066434494 -0.14260073 -0.034513094 -0.3809948 0.06421896 0.006991235 0.11430447 0.054615688 -0.27406085 0.106364466 0.36483362 -0.05870375 0.19567591 0.35824206 0.025936062 0.07387473 0.06585765 -0.2642679 -0.1403318 0.0003586531 0.17233239 0.16559957 0.03638065 -0.119175434 0.15208861 0.26709533 0.14810625 0.24697582 -0.028830323 -0.0766404 0.09818492 -0.11132685 -0.2930597 -0.016414715 0.104776025 0.019977357 -0.028653942 -0.09655487 -0.15807764 -0.028529987 -0.051893044 -0.13045804 -0.08979598 0.09832283 0.19076177 -0.034912113 0.013437902 0.3933013 0.19396111 0.059853952 0.030036494 -0.0017751375 0.34149408 0.014352696 -0.102694064 0.2404263 -0.149984 -0.2459787 -0.035818875 -0.09007089 0.194159 0.1759187 0.14935236 0.38920823 -0.011077179 -0.0071216184 0.031087466 0.3006377 0.021973677 0.103967175 0.12309735 -0.04740014 -0.0593181 -0.07228592 0.21561144 0.16059704 -0.13657631 -0.31811497 -0.0547656 0.27964544 -0.14434797 0.013145036 0.22597803 -0.06938238 -0.12943771 -0.07855948 0.010794447 0.22158188 -0.14573082 -0.24681282 0.09616985 -0.12865113 0.073770754 0.07709717 0.0534141 0.060537048 -0.2643752 -0.18236408 -0.07685834 0.11281554 0.4205812 -0.011303409 0.65058213 -0.25619796 -0.07670846 0.12662399 -0.39662206 -0.25410676 -0.04751445 -0.23511136 -0.04568074 0.098897725 -0.0050522485 0.24931313 0.17465828 -0.10725931 -0.07778219 0.14110874 0.12491011 -0.106120765 0.11910462 0.31384492 0.24972507 0.12613752 0.043328777 -0.15501602 0.23408245 -0.09045846 -0.15396963 0.05851255 0.0026255955 0.1676979 0.14170812 0.044679604 0.1337372 -0.043422993 -0.0057410365 -0.28318274 0.011127474 0.01804778 -0.20224158 -0.0076173833 0.08382192 -0.41077927 -0.19662477 0.32617304 -0.10263613 -0.035559714 0.07027334 -0.042745203 -0.1609811 0.32732922 0.16168366 -0.1712766 0.002367889 0.03206814 0.03879219 0.0022761133 0.1349042 0.0216896 -0.06798544 0.15374008 -0.21103851 -0.12687232 0.20335984 -0.0094908085 -0.18825197 0.2321809 -0.090986915 -0.041130178 -0.06700531 0.046883717 0.1981755 0.0019483034 -0.00017087185 0.037579298 -0.3377608 0.14647977 0.044458456 -0.0702556 -0.27044743
保持 0.14305805 -0.0874343 -0.022059996 -0.23915607 0.0024161157 0.2827449 -0.10979066 -0.011326659 0.0776651 0.08119128 0.09784593 0.12727821 -0.32956865 0.37347588 -0.10055922 -0.06295874 -0.13246028 0.019720847 0.04597557 -0.303109 0.27019152 -0.20641886 -0.006432878 -0.058386646 -0.13639963 0.24823074 -0.058046203 -0.3436546 0.24856983 -0.14502771 -0.061797082 -0.1929511 0.41954207 0.24588506 -0.047153488 0.13092977 -0.13413963 0.074408345 -0.49917102 0.22113375 -0.11411059 0.20623124 -0.07426561 0.079384916 0.0959723 -0.12804426 -0.10457631 0.4537623 0.0691987 0.10185546 -0.17253213 -0.076785736 -0.03505523 -0.3175245 0.0808808 -0.13703892 0.21001342 -0.33605748 -0.28474963 0.1385002 0.12434568 0.15065745 0.2738911 -0.1437543 -0.035874322 -0.02918362 0.07863667 0.12701732 -0.26440468 0.33142334 0.03435837 0.22573851 -0.17870423 0.22579351 0.14736144 0.32384 0.2887508 0.17146361 0.008757857 -0.091212936 0.02041573 0.41925678 0.19490567 0.4235037 0.15467161 -0.14643513 -0.03515503 0.011478925 -0.0036509454 -0.38187614 -0.26987854 -0.058349263 -0.31994385 -0.27116394 0.040895805 0.4136997 -0.41197023 -0.20652306 0.23711018 -0.036748607 -0.3468516 0.058862444 0.14254093 0.2030213 -0.44248098 0.029567525 0.1285101 -0.17145947 -0.19972956 -0.2604106 0.057531066 -0.19986041 0.014234853 0.083875194 0.044767845 -0.030015673 0.27242658 0.117657654 -0.25044656 0.110470854 0.3136876 0.11993749 0.24676237 0.10341728 0.45304555 0.11532806 -0.14694476 0.090240695 0.026002267 0.05556184 -0.057813063 -0.079341054 -0.22813277 -0.0565621 -0.0057591056 -0.039794136 0.031603005 0.15933973 0.49795383 -0.07904134 0.08681585 -0.29244366 -0.28427255 0.05263478 0.16382635 0.15969007 -0.13823748 -0.08325636 0.1344896 0.38068357 0.083428666 0.018698024 -0.4205231 -0.069092445 0.05994292 -0.018999118 0.096341595 0.12861449 -0.04035423 -0.2408137 0.024594998 0.017209813 -0.3357375 -0.19104183 0.22127959 0.4615495 -0.33961296 0.047838688 -0.052138254 -0.035895273 0.024781153 -0.21665598 -0.1353501 0.017713053 -0.030817 -0.043923095 0.21937038 0.08035907 0.07684707 0.2692523 -0.073624626 -0.056233484 -0.06090406 -0.10168973 0.029984528 -0.16102542 0.5927754 0.238217 0.066327885 0.04259851 0.04644404 0.10526853 0.09310126 -0.1707402 -0.21507788 0.13362533 0.14434654 0.11856498 0.08920474 -0.21922794 0.21643008 0.0030333176 0.4036652 -0.046352 0.13503161 -0.31311354 -0.022973279 0.45069623 -0.025007823 0.27463394 0.06895513 0.038333606 -0.31613928 -0.28775603 -0.0010426034 -0.09787535 -0.22826599 0.15250629 -0.15951094 -0.17565946 -0.10113194 0.21600254 0.20128341 0.078318276 -0.16382164 0.020958215 0.47728577 -0.004689077 0.26119885 0.082223326 0.34128997 -0.06460151 -0.19468479 -0.24488674 -0.31445682 0.036558233 0.54370075 0.21955918 0.16708168 -0.11316908 0.1848914 -0.05054562 0.45064455 0.3019916 0.092993654 0.14544958 0.16121547 0.10857479 -0.22130817 -0.37294188 0.039685152 -0.5062997 0.13994808 -0.19159018 0.094192 -0.039697528
要 -0.06712037 0.020011423 0.060234 -0.28215507 -0.04968085 0.1208807 -0.1469164 -0.14394137 -0.027401652 0.046456344 0.022436434 -0.071489975 0.06508687 0.118830085 -0.14187704 -0.06298173 0.15251885 0.009742914 -0.11233513 0.1693613 -0.022205375 -0.19504927 -0.1859785 0.035868958 -0.19900376 -0.08934128 0.06558649 -0.18330136 0.100302264 0.007071541 0.18281375 0.24670468 0.008124856 0.057684492 0.09066348 0.0755568 -0.14219233 -0.1625049 0.046686035 0.20746249 0.17981239 0.13331388 -0.06657123 0.05600445 0.054782607 0.1360121 0.02454013 -0.066682994 -0.18100373 0.06457206 0.21407029 0.050595205 0.16300812 -0.23176709 0.123018235 0.21591818 0.2127428 -0.27816293 -0.16407602 0.26471943 0.36479822 0.24212106 -0.07450844 -0.13057698 -0.21647082 -0.19242792 0.18012816 0.1438144 -0.04787229 0.08168105 -0.03633124 0.32640547 -0.04007833 0.32944912 0.093058854 0.046888154 -0.039746527 -0.015724294 -0.31885493 -0.03167047 -0.29732007 0.09033404 -0.2000778 0.093104556 0.0736413 0.15290476 0.23141396 0.007965217 -0.24670918 0.050063353 -0.4201985 -0.14035435 0.1343266 -0.09214775 -0.028464947 0.27340284 0.067824826 -0.07821968 -0.2583913 0.2556861 -0.17751984 0.006747119 0.057626188 -0.0026734585 -0.2139368 -0.035168506 -0.17133424 -0.025744235 -0.015102604 0.10682906 -0.13551192 -0.169627 0.10665821 -0.32553226 0.016344137 0.0871499 0.12590358 0.16629264 -0.31969887 0.03270251 -0.043020222 0.061048076 0.10524344 0.036807936 0.06463903 -0.011403457 -0.004325091 -0.008791712 0.2602446 -0.15417106 0.11278084 -0.11986283 0.19135718 0.057168227 0.05511159 -0.19200578 0.07800517 0.20689943 0.2789908 -0.19722275 -0.1275296 0.02511472 -0.094695546 -0.09600827 -0.049860105 0.08947028 -0.19407892 -0.18066224 -0.18267518 0.031333882 0.24985395 -0.17853194 -0.54364514 0.14078656 -0.07232095 -0.03354921 0.14106046 0.17071445 -0.03566484 -0.03845187 -0.116224416 0.082651734 -0.12631838 0.0046541737 -0.10843341 0.24477817 -0.3083961 0.027226916 0.059312142 0.22113219 0.077464014 0.2508691 -0.11879174 -0.19267017 0.16924767 0.3064758 0.030930735 0.21872145 -0.43985513 0.005301858 -0.16842698 0.03947971 -0.2930875 -0.4207819 0.07545307 -0.12342797 -0.0955732 0.13144466 0.16887335 -0.015828516 0.2230247 0.050426822 0.055053525 0.12812395 -0.30685714 -0.10633066 0.027325587 0.06824405 -0.050862163 -0.298965 0.1481335 0.026280912 0.040155657 0.032925867 -0.049668763 -0.17300016 -0.07096353 -0.32353938 0.09245246 -0.004817781 -0.00081393874 -0.02089681 -0.034871362 -0.38772252 0.20711978 -0.025476009 0.08243939 -0.07796532 -0.23802231 -0.011439743 -0.16838354 0.2471337 0.08731309 -0.14443003 0.11842106 -0.19798441 -0.07635743 0.02621096 -0.12652962 -0.14507242 -0.050822247 -0.025617225 -0.2825345 0.21709943 -0.09189739 0.15964173 0.08405815 -0.056574184 -0.08997694 0.05274717 0.110189125 -0.18222702 0.10583609 0.012655439 0.035458166 -0.11956052 0.109478384 0.024842095 -0.3281045 -0.054908928 0.2160289 -0.21006355 0.14100774 0.054781754 -0.034360547 -0.21816902
也 -0.1619124 0.037998836 -0.08432331 -0.02522038 0.06953415 -0.16511048 -0.109854974 -0.17968413 0.05694836 -0.051505443 0.19547701 -0.075813875 -0.018171119 0.08114611 -0.039278656 0.21503231 0.29544857 -0.43147328 -0.09297035 0.091047 0.04242267 -0.056215394 -0.22568631 0.025409266 0.048037816 0.068925954 0.047907356 0.017860629 0.18097499 -0.0067284913 -0.32804057 0.22645412 -0.10103243 0.023326093 -0.12369183 -0.03761537 -0.13147555 -0.21323162 -0.038195733 -0.22138113 0.08561713 0.07818844 0.15558343 -0.013949598 0.24973671 0.20662302 0.18589154 0.03503063 -0.13626774 -0.1000851 -0.16067994 0.16440725 0.015067212 0.14341913 -0.09758022 0.04011142 0.18140107 0.030282797 -0.093951784 0.06444427 0.39062092 -0.043005288 0.27519602 0.08178736 0.012719923 -0.27284914 -0.17185336 0.030356582 -0.45473194 -0.07368379 -0.12768756 -0.031126188 -0.24281056 0.116479255 0.28652555 0.101743266 -0.08107649 -0.17713712 -0.24882054 0.18799163 0.0439143 0.042777102 0.13652837 -0.056979917 -0.03614598 0.4474863 -0.15052511 0.06354499 0.3825667 0.07595204 0.038795434 0.01298143 -0.25614548 -0.17267333 0.000527313 0.052039977 0.08093862 -0.030220304 0.08194655 0.055261187 0.19231546 0.22407562 -0.0007575988 0.054115 -0.11337628 -0.06685527 -0.030618059 -0.15382569 -0.0343102 -0.044175465 -0.084597856 0.010508079 0.061264243 -0.29283783 0.04133019 -0.12347249 -0.03140867 -0.12408205 0.017153729 0.21976946 0.02040222 0.076974586 0.3638192 0.16100045 0.09098805 0.026397226 -0.11207341 0.16389062 0.26915443 -0.08102457 0.22676067 -0.03890415 -0.12498779 -0.12983546 -0.00079900876 0.029993456 0.09417947 0.2505555 0.31113255 -0.19290416 -0.08471297 0.010550001 0.31671035 0.007350988 0.113115646 0.032428384 -0.0057942225 -0.1181073 -0.043859985 0.14702909 0.26229534 -0.118038654 -0.23536496 0.11404771 0.10957628 0.08236278 0.07182752 0.28098115 0.11237517 0.037416857 -0.101250865 0.00063144555 0.14255783 -0.3464539 -0.313339 0.07348806 -0.11584694 -0.0686057 -0.06853017 0.34651738 -0.06665577 -0.12594172 0.007810418 0.0882798 -0.011949787 0.21942621 -0.050262164 0.32257602 -0.2823126 -0.14247057 -0.15025775 -0.124196775 -0.11125593 -0.15907778 -0.12129234 -0.14374217 0.24322277 0.11177875 0.13942492 0.04280714 -0.18497843 -0.075991705 0.006799236 0.15316097 0.037408244 -0.04549646 0.19184268 0.0829204 0.020186462 -0.14535037 -0.06339043 0.24103716 -0.03289259 0.06283066 0.14043127 0.018789792 0.08575736 0.09364979 -0.09183409 -0.0009831749 -0.073401324 -0.099755354 -0.30322582 -0.11528968 0.09926332 -0.044933163 0.1313978 0.10263898 -0.3814471 -0.41993055 0.28277948 -0.118929245 -0.11198265 0.21275982 -0.124369964 -0.26878783 0.21882491 -0.157651 -0.0345971 0.061141584 0.011749095 0.14413087 -0.06606341 0.26725447 -0.018022755 -0.19713275 0.07491174 -0.118765 -0.1264975 0.3436495 0.10671306 -0.22513297 -0.038291533 -0.007738378 0.07159823 0.023684455 -0.040160753 0.28723982 0.050633345 0.067296594 0.1536856 -0.28445286 0.15479828 0.07457815 -0.14212424 -0.2847553
身体 0.3624843 0.036014818 0.23558423 0.14908636 -0.011360725 0.38559526 -0.0723864 -0.08436027 0.16039981 0.061182942 0.16972959 -0.18248822 -0.43090895 0.34268412 0.08335012 0.06260286 0.052102275 0.09036611 0.2675348 -0.25257558 0.008656025 -0.09706597 -0.10143341 0.21533042 -0.14788891 0.11502002 -0.024696715 -0.09426856 0.27415037 -0.10171892 -0.02601175 -0.01463184 0.22318542 0.439117 -0.25480857 -0.07376143 -0.10957519 -0.06123261 -0.46901086 -0.17864877 0.0469194 -0.13118568 0.10818719 0.19877483 -0.05470917 -0.19467208 -0.09941845 0.48723808 0.021824684 0.0029932584 -0.14720242 0.027256358 0.047109343 -0.23494984 -0.028861742 0.007388958 0.34448314 -0.27196175 -0.1763079 -0.056186706 -0.009586096 -0.1898263 0.24379973 -0.014624256 0.26399985 0.060170513 -0.06689875 0.26787907 -0.47728294 0.1829454 -0.35597557 0.08447886 -0.48131198 0.27166587 0.20981672 0.32577658 0.08179952 -0.2091556 0.078600265 0.052377917 0.05299001 0.10994566 0.13941449 0.51666945 -0.23666109 0.06500535 -0.08739785 0.055791065 0.044815227 -0.27912995 -0.5103862 -0.07264144 -0.32645273 -0.367358 0.1481723 0.39203203 -0.34236875 -0.28728968 0.25990897 -0.108319186 0.08356844 0.08802689 -0.019595455 0.25186065 -0.34437406 -0.1081217 0.33561108 -0.22551627 0.017635629 -0.18486054 -0.107179165 -0.16600168 -0.07245622 -0.009850777 0.17302391 -0.10393646 0.020565977 -0.03358024 -0.11981498 -0.06141441 0.33848608 0.1997655 0.31079578 0.27961996 0.32836223 0.23165065 -0.10192823 -0.18417537 0.25801218 0.085990116 0.048584662 0.040784184 -0.2766159 -0.2704207 -0.276337 -0.13510698 -0.06849547 0.12982178 0.3525101 -0.08128718 -0.0993785 -0.36687592 -0.025214396 -0.053923536 -0.11257537 0.13456006 -0.2207013 -0.18982466 0.18987253 0.42260894 0.25198275 -0.043084174 -0.40230152 0.0482813 -0.050620206 -0.015895408 0.19601844 0.09646672 0.1583559 -0.18497896 -0.027032357 0.0008744569 -0.1954288 -0.1609848 0.13363281 0.26520807 -0.20781471 -0.14799477 -0.26443982 0.36321944 -0.2240462 0.006336269 -0.0013182595 0.11715098 -0.08456218 -0.24941674 0.15790242 0.021564478 0.24405502 -0.02253883 -0.16772789 0.18111627 -0.179981 0.16710901 -0.105530076 0.0014080532 0.6285254 0.27455 0.10603803 0.072007254 -0.15558316 0.07164198 -0.02399483 -0.08480332 -0.04000993 -0.099181384 -0.03786679 0.23441236 -0.07303942 -0.35287225 0.2520573 0.03780043 0.28908938 -0.11748956 0.15289682 -0.1378769 0.10015414 0.24453141 -0.16306853 -0.038803857 0.0689056 -0.06405007 -0.21121377 -0.37168562 -0.052500755 0.1539261 0.09033614 0.35094967 -0.18472539 -0.4140155 0.11950509 0.33798414 -0.12744817 0.5064425 -0.07947969 -0.056180093 0.33917877 -0.25684243 0.3778255 -0.11902542 0.41447538 0.24507207 -0.33073252 -0.27962172 -0.063589305 -0.20041052 0.38035694 0.21237007 -0.012970082 0.103832655 0.1398987 0.083020516 -0.032184068 0.29076165 0.13213791 0.053594057 -0.17025766 0.13103354 -0.1801442 -0.28045705 -0.034420468 -0.29700837 -0.1317397 0.09611262 0.063537285 -0.038699992
运动 -0.13078253 -0.1615235 -0.098691344 -0.041106448 -0.22702317 -0.1303335 -0.23018083 -0.3185462 0.2686287 -0.06914135 0.09332905 -0.0065103727 -0.14537583 0.016162632 0.027840061 0.4074513 0.33704883 -0.19472277 0.00026188427 -0.21266416 0.022699887 -0.16029187 -0.13815571 0.1135852 -0.07729115 -0.10414617 0.12193953 -0.16617943 0.22957614 0.07896338 -0.2434891 0.081583574 0.080755174 0.23353264 -0.15396886 0.0056223613 -0.40859392 -0.20393345 -0.105017565 -0.042536728 -0.011035853 -0.15266515 0.24026053 0.05235331 0.049780454 -0.11407028 0.07341639 -0.11704282 -0.013323605 0.013930449 0.24748579 0.13142519 -0.08790649 0.14321578 0.006606764 0.17532472 0.09453823 0.09302655 0.046666663 0.06928574 0.07510224 -0.051714636 -0.026240516 0.10342966 0.14502648 0.02857757 0.08363282 0.13474666 -0.32620972 0.0049692416 -0.061323352 -0.21799259 -0.17227356 -0.047481943 0.31548896 0.13905704 -0.04792086 -0.16322406 -0.19687402 0.1763687 -0.14954734 -0.13137853 0.060308445 -0.09203109 0.1390104 0.100439586 -0.014853963 0.13440906 0.07973969 -0.05518429 0.018049728 -0.0071079195 -0.39788112 -0.3793502 0.24663171 0.24428989 0.07088024 -0.042157844 0.10369782 0.023641413 0.14748059 0.057696432 0.13951047 0.12384104 0.007016936 -0.14903677 -0.04776381 -0.15810482 0.0032596586 -0.08610535 -0.0052685295 -0.050158065 -0.11834915 0.1307313 0.013130885 0.0336896 -0.0045412043 0.0015073098 -0.110162556 0.18873473 -0.08634808 0.18174814 0.3926209 0.0627252 0.025963418 0.021426488 -0.15200767 0.06816201 -0.1703141 0.22848415 0.21982273 -0.23951457 0.082833014 -0.15366332 0.117908925 0.0023297898 0.2873504 0.13219823 0.22896504 -0.12036063 -0.044298124 -0.022389455 0.1703042 0.04453399 -0.07022854 0.16820481 0.15271105 -0.0791013 0.10170427 0.21823847 0.2331893 0.062083475 -0.080863625 -0.15125251 0.029129557 -0.016955903 0.059685826 0.056879893 0.100482 -0.049991038 -0.24178536 0.1903166 0.013829048 -0.17973824 -0.2609445 0.12192166 -0.04662491 0.24954377 -0.03169752 0.21414542 -0.12659279 0.035066877 0.29066932 -0.011250838 0.018720023 0.28648835 -0.08566065 0.49639058 -0.1703506 -0.24476151 0.02005577 0.00410513 -0.20598936 0.05283652 -0.46389675 -0.046087906 0.43585327 0.064311266 0.080604374 0.027675772 -0.079457045 -0.09085947 -0.06990066 0.1490328 0.08016443 -0.1432351 0.2629208 0.16830339 0.00030185457 -0.09644047 -0.1345088 0.0078109005 -0.053749125 0.012845955 -0.11332998 0.23241523 0.2553534 0.019745875 -0.189914 0.2135113 -0.036124054 -0.1365249 0.1272813 0.021655614 -0.22899677 0.08469405 0.043403257 -0.047734212 -0.5547243 -0.2540275 0.28115463 0.1171235 0.103435814 0.35251766 0.19171403 -0.023738014 0.114804044 -0.022052929 -0.33576864 -0.048642 -0.0024432794 0.0470744 -0.21209547 0.15638082 0.07880148 -0.18603736 0.1464847 -0.13842493 -0.037098974 0.25340626 -0.28723747 -0.2852663 0.06510167 0.1442386 -0.14477207 -0.054073323 -0.23167145 0.27228346 0.0040822066 0.18651012 -0.11877461 -0.03312006 0.0318308 -0.015895335 -0.2334653 -0.19224285
如何 -0.07129916 0.08972006 0.017714158 -0.13003291 0.0033823415 0.08204722 -0.04735817 -0.182119 -0.14892721 -0.22160132 0.13698913 -0.21333711 -0.15441936 0.013694965 -0.05744272 0.14043401 0.01542839 -0.019129883 0.10097542 0.0008073158 0.005269224 -0.055486564 -0.1543777 0.11816418 -0.04720694 0.018056227 0.112958156 0.024687367 0.23541637 -0.08092059 0.001003833 0.061043583 -0.017104322 0.37993285 0.019473974 -0.2985051 -0.2248145 -0.3233899 -0.1984331 -0.12006204 0.07810157 -0.1510913 -0.057074226 0.12767775 0.020052878 -0.01765894 -0.14331304 -0.0833428 -0.05017492 0.11579267 0.0050144037 0.08407103 -0.041067366 -0.102102555 -0.050343305 0.2775613 0.11828669 -0.04698819 0.0645437 -0.11078886 0.22760157 -0.14490592 -0.01699946 -0.0520009 -0.009174641 -0.1018697 -0.14062643 0.1909201 -0.043432485 -0.034650795 -0.19589296 0.037035998 -0.2176387 0.13305931 0.121695265 0.16062176 0.03076956 -0.058839604 -0.01921466 0.15763184 -0.17293923 -0.18428808 0.045262843 0.13233466 0.018908571 0.1894102 0.078686245 0.1356544 0.13361353 0.032406457 -0.25075698 0.13710104 -0.24120986 0.12592079 0.119591966 0.0027342094 -0.11199546 -0.1341577 0.105896406 0.12588938 0.1079847 0.17519388 -0.051079843 0.058407955 0.033762224 0.075408176 0.05097381 -0.097162075 -0.07925226 0.2083035 -0.3533074 -0.08692674 0.0036141628 -0.11341667 0.052252654 0.00089056126 0.029459951 0.027438866 -0.077861905 0.052684885 0.15628736 0.14863615 0.12997265 0.2299413 0.13396512 -0.18712355 -0.16495591 -0.19589578 0.32889906 0.04474977 0.23265292 -0.058472507 0.029646628 -0.0940601 0.08582538 -0.18457067 -0.23640853 -0.046305303 0.16155057 -0.107500866 -0.15394847 0.05482023 0.048049007 -0.03724344 -0.05136305 0.08838253 -0.32399645 -0.09549108 -0.14892977 -0.04721819 0.33226824 -0.05524037 -0.2778301 0.2028604 0.029299373 -0.029479722 0.28471258 0.14963709 0.19273926 -0.07818868 0.0060517886 0.062909804 -0.21792544 -0.06402109 -0.11804375 0.15990572 -0.023968987 0.017925449 -0.10995026 0.15807201 -0.13058177 0.16242559 -0.012493665 0.07148352 -0.079810716 0.0059474804 0.010069125 0.17588986 -0.1259708 -0.19571605 -0.21441066 0.017574068 -0.052171048 0.012835939 -0.044766236 0.08652752 0.078825355 0.012743248 -0.012775115 -0.052400608 -0.018636877 -0.18537156 -0.0025991264 0.10887092 -0.13703263 -0.1677079 0.12763691 0.07594192 -0.08819265 -0.1756572 0.14653572 0.22514553 0.15511167 -0.13409674 0.07282645 0.017068876 -0.029261582 -0.023501405 -0.2757996 0.051920697 0.17978893 -0.0034618126 0.084669106 0.018267097 -0.09777501 0.003301615 0.12603515 -0.103306435 -0.12194888 -0.22022906 -0.0020188298 0.30606875 0.11082979 0.1795194 0.15451731 -0.23864552 0.035641484 0.09401801 0.05443766 -0.14305036 0.06630629 0.11001663 -0.38799608 0.058340453 0.09341429 -0.16418836 -0.0714492 -0.023547947 0.023553088 0.10764906 0.045781277 0.042466227 -0.21554704 0.15481177 -0.005621584 -0.18915911 -0.050290637 0.15301327 -0.16739018 -0.0059947255 0.12669183 -0.14582448 0.004240505 0.10669161 0.10388739 -0.28486973
吃 -0.011700574 -0.004571814 -0.017572353 -0.35482395 -0.057628542 0.25122544 -0.20524184 -0.051825628 -0.12784572 0.040311374 0.079590365 -0.0011645092 -0.04140641 0.22089459 -0.134691 -0.0944689 -0.10117186 0.20602635 0.021877406 0.06627509 -0.009895186 -0.2664811 -0.08577589 0.07450441 -0.15001734 0.043273382 0.14008659 -0.14918299 0.2119953 -0.15753385 0.28309146 0.10601419 0.099350974 0.24376585 0.11109295 -0.049718495 -0.03777782 -0.23696554 -0.0952127 0.1816447 0.10497374 0.025958037 -0.21512273 0.046657715 -0.028816383 -0.05732197 -0.09916003 -0.01745859 -0.21917899 0.10506491 0.10569622 0.025228338 0.09521925 -0.31403792 0.16244908 0.29073104 0.26040488 -0.2874041 -0.0017305944 0.13806373 0.20945607 0.06909978 -0.04666644 -0.20326084 -0.26653886 -0.14416395 0.10684734 0.17564581 0.025535347 0.18829702 -0.013191319 0.3409865 -0.19093718 0.29876792 0.024630103 0.12845527 0.012894569 0.08048633 -0.11998303 0.0045122183 -0.32410395 0.11383634 -0.14976524 0.35162708 0.14701973 0.10100298 0.2510388 -0.0144213 -0.2613821 0.0525468 -0.43975395 0.026521957 0.061847456 0.039458685 0.07167158 0.2405945 -0.12063675 -0.17516564 -0.103318125 0.18371359 -0.275899 0.036175236 -0.06458758 0.03155473 -0.07904331 0.11075095 -0.2427539 0.080791704 -0.04452364 0.09166408 -0.12871125 -0.14447047 0.08804657 -0.23511422 -0.055273104 0.068949446 0.27048162 0.1711999 -0.31347257 0.0271495 0.06271555 0.15817498 0.0924271 0.08954328 0.00094253133 -0.17738122 -0.19967414 -0.15900458 0.28349155 -0.05298146 0.066222526 -0.122851476 0.32772636 0.11825704 0.11315614 -0.25024125 -0.14350602 0.03972722 0.26129514 -0.1940671 -0.047881965 -0.017280372 -0.20932515 0.04942675 -0.11796483 -0.005597428 -0.277676 -0.16721295 -0.18223025 -0.12650794 0.2670059 -0.082074046 -0.62239647 0.20733981 -0.13176812 -0.06297775 0.23188658 0.14193493 0.096275456 -0.09448412 -0.0528289 0.05926275 -0.28813526 0.09180019 0.09912019 0.3406318 -0.24738868 0.012444163 -0.033826314 0.17421527 0.044039402 0.21305847 -0.040815067 -0.092023924 0.025807073 0.13051401 0.048925113 0.08557713 -0.27671313 0.08857551 -0.2537441 0.117193796 -0.21376453 -0.328499 0.1915653 -0.15129475 -0.050330356 0.14748982 -0.008992138 -0.1570325 0.26321208 0.024685316 0.056834087 0.13928027 -0.3682975 -0.12354721 0.05712443 0.07236336 -0.10585947 -0.23191263 0.2480028 -0.028982474 0.12661172 -0.02622663 -0.06418952 -0.23342375 -0.091380484 -0.28356376 -0.024399683 0.1059443 0.16400951 0.043045115 0.07892709 -0.36227667 0.1931194 -0.032974448 0.07493938 -0.23521627 -0.121994376 -0.0036625778 -0.19996211 0.3569369 0.28582737 -0.115611695 0.218939 -0.21331447 -0.084716536 0.085963376 0.056678284 -0.17524667 -0.009994459 0.008988772 -0.37076938 0.09754088 -0.16190451 0.17259635 0.12280949 0.072389826 -0.01520414 -0.061516903 0.18690541 0.07610707 0.023158157 0.17339575 0.08542577 -0.12907901 0.12209687 0.040972766 -0.36696655 -0.1405054 0.21594971 -0.23816112 0.048062902 -0.013773475 0.13437805 -0.2169735
高 -0.14808218 0.07574482 0.069866374 -0.45643702 -0.25803122 0.103815794 -0.26770064 -0.16018051 0.16442621 -0.036177322 0.030223135 0.01896671 0.07902838 0.0950377 -0.13536821 -0.014418323 0.14898781 -0.05733915 -0.3725173 0.053932607 0.13562082 -0.25781393 -0.103427224 0.09402895 -0.33030784 -0.13427876 0.08360351 -0.24822599 0.17558807 -0.01815891 0.116868414 -0.032304026 0.104598224 0.066882804 0.14835554 0.3057072 -0.12584315 -0.2913855 0.14997296 0.30704212 -0.041404925 0.16312836 -0.13496546 -0.009492672 -0.099359185 -0.07950365 0.16016479 -0.014686878 -0.24861962 -0.023107411 0.1587721 0.08625078 0.041232303 -0.3193479 0.06729976 0.02410312 0.10284444 -0.21000308 -0.28582367 0.39250258 0.118070886 0.3706112 -0.16006997 -0.22286007 -0.21605377 -0.15262088 0.56219345 0.08161849 0.06899488 0.1798593 0.13738081 0.37386867 0.038233463 0.27150905 0.35926437 -0.20180751 -0.05796297 0.11593358 -0.25872228 0.017247934 -0.31652537 0.07211823 -0.26468056 -0.03769932 0.20080845 0.07917056 0.40965208 0.110321924 -0.26368976 -0.21318874 -0.22373773 -0.097968526 0.09609244 0.02882634 0.02959771 0.32725435 -0.064615004 -0.05853885 -0.3725413 0.25957233 -0.28251603 -0.04649832 0.2853989 -0.062118337 -0.08043124 -0.0037298142 -0.2750798 -0.14603412 -0.038472336 -0.11091176 0.1955711 -0.18599048 0.13449901 -0.11626743 -0.19462837 0.008398468 0.10146991 0.19019207 -0.24078517 0.12421962 -0.02575514 -0.0032833864 0.21852082 -0.0894462 -0.040453494 -0.072684996 -0.01203958 0.09234347 -0.08139089 -0.05170224 0.13436276 -0.09909261 0.07994684 0.0041036983 0.1467955 -0.06967158 0.2706858 0.184368 0.2998812 -0.32964745 0.00045684777 0.10815014 -0.14344946 0.07113046 -0.031136742 -0.008932357 0.13917647 -0.114130944 -0.15613702 0.21800484 0.1468163 -0.021426205 -0.5889151 -0.004302151 0.04020615 -0.06640305 0.024258379 0.2047083 -0.13789295 -0.21885337 -0.083666846 0.025879724 -0.120082155 0.18677223 0.014988009 0.41291755 -0.36097714 0.0864286 -0.0020194226 0.093087494 0.06371815 0.27013162 -0.1462327 -0.35065806 0.2754163 0.35072413 0.12078804 0.40249893 -0.33535376 -0.0051646465 -0.13317744 -0.12205816 -0.3942674 -0.30975494 -0.05843341 -0.17205858 0.016135251 0.27600715 0.19146264 0.12924738 0.29340613 0.043033034 0.0018776598 0.018252144 -0.26348597 0.05010251 0.1457074 0.2905454 -0.007892121 -0.16032773 0.12671563 -0.005253137 0.06029971 -0.17246611 -0.20684424 -0.0727188 0.006290736 -0.25542378 0.14102706 0.1602137 -0.038357314 -0.095275104 -0.20402858 -0.46283495 0.2581407 -0.08133468 -0.04645428 -0.31309763 -0.4342156 0.050942626 -0.25459257 0.17635836 0.13571413 -0.18510163 0.2549783 -0.008581631 0.078469776 0.1304702 -0.31035575 -0.036791347 -0.0833625 -0.020578118 -0.27271196 0.13195908 0.010198653 0.35851863 0.30151066 -0.05548672 0.0649799 -0.05137905 0.05418113 -0.35812724 0.27459255 0.039753146 0.056352217 -0.055411883 0.20037383 -0.057237953 -0.3380735 -0.24231564 0.12253927 -0.30959108 0.10338745 -0.07367528 -0.10798201 -0.1602623
运动量 -0.14745578 -0.105020426 -0.18359809 -0.32754305 -0.12980318 0.11783482 -0.17249645 -0.3213227 0.031006468 -0.039871234 0.19827133 0.06679149 -0.19416738 0.08248411 0.06620549 0.056644883 -0.15305848 -0.12884788 -0.10796299 -0.17702961 0.26176897 -0.14155574 -0.070522465 -0.04510738 -0.07726317 0.25511673 -0.087144166 -0.10386928 0.29053685 -0.12690836 -0.17197394 -0.21082486 0.3694617 0.28465408 0.04448431 0.019299451 -0.19975093 -0.2168225 -0.28557163 0.09548043 -0.18324155 0.18531796 0.0051749614 0.11419908 0.17561637 -0.20736481 -0.09764469 0.059240445 -0.08331698 0.016774554 -0.06568961 0.051275097 -0.1371536 -0.043450143 -0.24602441 -0.044659436 0.08070385 -0.04845513 -0.22152667 0.18845803 -0.023464829 0.055762272 0.20529424 -0.19117673 0.0064348816 -0.21689402 -0.010730121 -0.12510413 -0.22348036 0.3870992 -0.03141905 0.1984142 0.17263171 0.27366772 0.396249 0.07191544 0.27506694 0.30559677 -0.14825293 0.15994065 -0.27535656 0.21833964 0.13295843 0.18979454 0.55942184 0.030726375 0.30432394 0.07829927 -0.04483097 -0.3917941 -0.2034404 0.18578477 -0.25686684 -0.25712022 -0.016851446 0.29377148 -0.19622107 -0.28553644 0.0703463 0.11392854 -0.1507416 0.123802684 0.32213077 0.10722679 -0.18079925 0.14794768 0.01728283 -0.0028614518 -0.08461097 -0.051365573 0.2041639 -0.21585096 7.996477e-05 -0.009735174 -0.14483805 0.093498506 0.267893 0.05333059 -0.07598829 0.21215345 0.25392005 0.10388297 0.2218565 0.005083469 0.22744498 -0.15731905 -0.040588465 0.12259608 -0.1300282 0.053214308 -0.03786615 -0.116645016 -0.034890816 0.15055189 0.13937196 -0.052594867 -0.0041671596 -0.033955377 0.50540257 -0.35558745 0.008765435 -0.13573375 -0.15386647 0.15723978 0.3566316 0.055188756 0.11081089 0.0077047977 0.007740282 0.11995174 0.006190618 -0.06704634 -0.3982899 0.0244368 0.173783 -0.13671853 0.19074088 0.2756459 -0.06430832 -0.27509275 0.19600786 0.018244185 -0.33566648 0.0325611 0.24798055 0.39723387 -0.24064898 0.14531846 -0.123273246 -0.10491976 -0.16362667 -0.18240693 -0.25143546 -0.097237095 0.10588117 0.2999045 0.011874621 0.171925 -0.19326389 0.07651157 -0.14056602 -0.018305084 0.040954623 -0.19370654 0.19928479 -0.21011895 0.15065813 0.2648385 0.04416299 -0.10947359 0.019652655 0.004679897 0.21523882 0.02036244 -0.17310074 0.0710362 0.10564127 0.09990147 0.040100537 -0.14115505 0.15547174 -0.15862647 0.16018519 -0.4292037 0.067436084 -0.40610263 -0.0024051499 0.13682406 -0.08369492 0.19917507 0.27754128 -0.034171056 -0.33147934 0.08260946 0.118086725 -0.05078109 -0.2069257 -0.09717168 -0.17334922 -0.03458552 -0.08996306 -0.019669736 0.35467526 -0.06481832 -0.2183231 0.11328747 0.32376456 0.22552663 0.049884163 0.19566537 0.06869054 0.22524875 -0.06614496 -0.09991803 -0.033603135 0.049978953 0.47388667 0.12005382 0.14577682 -0.21767764 0.12849991 -0.1907039 0.2601991 0.09896203 0.020997463 0.16111211 0.23693697 0.0650358 -0.12794738 -0.1725403 0.11228544 -0.6026921 0.25757942 -0.44950604 -0.02760887 -0.091511816
方法 -0.1890963 0.12067471 -0.10946366 0.07087199 0.028113281 -0.116980605 -0.076982714 -0.22558641 0.030405136 -0.32951432 0.18671013 -0.2306562 -0.028706161 -0.121561125 0.11362843 0.15743627 0.09589621 -0.36172667 0.05382233 -0.018640574 -0.013255095 -0.11104296 -0.33523497 0.10437951 0.27573466 0.15453063 -0.07059161 0.017405167 0.31146225 -0.14815493 -0.24093474 0.006460269 -0.088280804 0.06743431 -0.28462347 -0.30159265 0.014110763 -0.19184116 -0.13228817 -0.35474294 0.061835937 0.09920975 0.14329879 0.103753194 0.13157776 0.09186934 -0.042103633 -0.0076409867 -0.07346333 -0.11230692 -0.12341635 0.1740466 -0.0024520722 0.3092572 -0.2633944 0.011724532 0.09041821 0.05095101 0.028489541 0.02324687 0.15686795 -0.17714 0.19678962 0.098795444 0.12691753 -0.32980156 -0.36103234 0.09282364 -0.46353552 -0.058668133 -0.09577083 -0.22140267 -0.32274273 0.11425425 0.18244784 0.1839249 0.13649389 -0.17145047 -0.050407935 0.10731799 -0.12888539 0.14626504 0.07992836 0.17281485 0.20483965 0.30606106 0.008608991 0.04592186 0.26947305 -0.073424764 -0.15257853 0.033176187 -0.27382207 -0.041325103 -0.16600524 0.15585856 0.047510467 -0.36437076 0.229669 -0.010138113 0.29964426 0.31233492 -0.19483799 0.08941456 -0.022476465 0.052844554 0.07415849 0.14318493 -0.05868858 0.014763297 0.03597631 -0.008096742 0.11935148 -0.20048858 -0.13248894 -0.037312318 0.04090579 -0.15071186 0.010757411 0.26075503 0.19410911 0.038364187 0.30769718 0.2131552 -0.070463926 -0.014084732 -0.28434438 0.033448454 0.20611939 0.0015219881 0.071902625 -0.08264448 0.10054678 -0.052399285 -0.15057956 -0.056891046 -0.09903346 0.06442128 0.3556881 -0.13394322 0.03559413 -0.13226074 0.3136745 0.066174194 -0.060546122 -0.08406922 -0.28908348 0.0075506247 -0.024757273 -0.13706437 0.23362325 -0.23670459 -0.28586674 0.12443087 0.15269539 -0.21379222 0.18441881 0.34779513 0.13936803 -0.030103385 -0.05034365 -0.21076263 -0.17177042 -0.013246491 -0.086636305 0.22380608 -0.09732363 -0.02249791 -0.17219344 0.34197804 -0.05601382 -0.16660556 0.03589987 0.109802395 0.06030967 0.177217 -0.05381444 0.08841047 -0.10254712 -0.25287765 -0.34594 0.09230599 -0.04069542 -0.25560287 0.016828096 -0.09621595 0.1397498 0.11976874 -0.0288031 -0.21312436 -0.08822765 -0.15254529 0.17470798 0.22158518 0.0013018951 -0.11490602 0.17243962 0.23022766 -0.15139937 -0.1588357 0.2550773 -0.052212644 -0.0802615 -0.24632227 0.06874216 -0.14279279 -0.04642385 0.035443738 -0.19083062 -0.05281383 0.108899355 -0.051233195 -0.33730504 -0.055333313 0.07822464 -0.0543247 0.09344842 0.02019725 -0.15656686 -0.1436082 0.25047627 -0.103372216 0.12792505 -0.044480518 -0.2030841 -0.28975368 0.031111797 -0.19766694 -0.04267596 0.20548838 -0.13248931 0.2989013 -0.21492335 0.17188072 0.00109956 -0.15035875 0.3037783 0.027236652 -0.13326728 0.05770812 0.12623636 -0.003498498 -0.20403524 0.19875361 0.1984987 0.05279125 -0.038599234 0.31162107 0.0874372 -0.09844279 0.07326264 -0.2729205 0.16829947 -0.10440384 -0.053168308 -0.24967691
健康 0.07423754 0.017779326 0.03582216 -0.035727717 -0.033854812 0.09875351 -0.05251457 -0.18838815 0.014970142 -0.08769833 0.21078712 -0.1797664 -0.25718266 0.09513023 -0.06735916 0.15209557 0.04125406 -0.08483781 0.15677196 -0.1160984 0.061376534 -0.07338058 -0.08897612 0.08953012 -0.01773455 0.21932727 0.02102303 0.03045406 0.26338136 -0.12930554 -0.1624163 -0.092943646 0.010576614 0.41383573 -0.17493664 -0.19978511 -0.12424951 -0.28313774 -0.25570184 -0.18000966 -0.008704268 -0.13905334 0.063220695 0.23735678 0.012122209 -0.08390451 -0.13675083 0.13836415 0.00095068617 -0.034280516 -0.043562587 0.048602432 0.0026097351 0.06002744 -0.13946186 0.104478754 0.19297084 -0.02331596 -0.067992225 -0.1046595 0.10384289 -0.19988693 0.11801152 0.005279987 0.14275706 -0.12920998 -0.23697121 0.13728474 -0.3584999 0.011594268 -0.27439728 -0.06863331 -0.25380135 0.090719216 0.25019905 0.23877837 0.15664965 -0.09244782 0.09050281 0.17983931 -0.0689225 -0.10318612 0.17291594 0.2545508 -0.013140903 0.14917241 0.069284186 0.10102321 0.1553905 -0.19429189 -0.28336203 0.025135998 -0.39019632 -0.16248333 0.06397783 0.14246598 -0.23699869 -0.25496113 0.20642392 0.036846183 0.14892678 0.22259499 -0.016649503 0.14287296 -0.15890223 -0.034999043 0.22619335 -0.08997815 -0.034503818 -0.03154893 -0.11481461 -0.1263621 0.034836996 0.0007973919 0.012942188 -0.08453042 0.04828077 0.0066775796 -0.009221605 0.1345952 0.24440892 0.14903653 0.19966705 0.15587252 0.21041727 -0.06519266 -0.12128726 -0.19462211 0.16745174 0.08437722 0.06570548 0.012176754 -0.06341531 -0.12371034 -0.0015244408 -0.13317534 -0.16636518 -0.028415315 0.26851088 -0.19942205 -0.16938318 -0.14160058 0.0064845323 -0.025132548 0.03000955 0.095825896 -0.1812156 -0.1518785 -0.007317201 0.14286816 0.2691821 -0.035658754 -0.1263852 0.15015674 0.074281774 -0.036496945 0.26303557 0.17227341 0.17077194 -0.06839742 -0.026477043 0.07078925 -0.16584837 -0.10973852 0.0424811 0.24445257 -0.06054767 -0.00927608 -0.27796373 0.18923838 -0.23015352 -0.023564637 0.06193458 0.06809797 -0.046969455 -0.08170922 0.07633525 0.07221737 0.10180031 -0.16764568 -0.26454017 0.03857811 0.0006265076 0.089252755 -0.05320799 0.022399139 0.29778075 0.14236543 0.034599125 -0.0832138 -0.1878696 -0.09091088 0.013420174 0.0021162804 0.024771666 -0.09273243 0.056042742 0.13376476 -0.033445697 -0.28700107 0.20081264 0.1989741 0.20485568 -0.24193579 0.19932318 -0.07546572 0.05402478 0.17492211 -0.29369882 -0.015918436 0.1609101 -0.046548758 -0.15776955 0.00846255 -0.021712283 0.054503724 0.10153795 0.12390052 -0.065532036 -0.33808702 0.12287226 0.117891744 0.0798589 0.3001664 -0.13540147 -0.14292306 0.23537165 -0.11284268 0.10021424 0.026309017 0.20031884 0.27055445 -0.26735708 -0.016064301 0.079981625 -0.2310858 0.20265572 0.18383835 0.036869135 0.11003964 0.18840894 0.0054402538 -0.21342896 0.1707602 0.06526624 0.0012191132 -0.13906667 0.2533601 -0.12063324 -0.12964918 0.036897622 -0.26226035 -0.004661636 0.026868593 0.049948823 -0.07964753
生活 0.06526241 0.04526272 -0.032466102 0.11962723 -0.06466724 0.2026585 -0.2126207 -0.19001591 0.14715648 0.057657376 0.19756164 -0.11276347 -0.11623957 0.2105297 0.18710232 0.020785512 0.1373823 -0.2463275 0.04114251 -0.005263413 0.019680822 0.10852175 -0.086351655 0.13263959 -0.054775216 0.13367562 -0.17993023 0.14639871 0.33387107 -0.07359523 -0.31938046 -0.14872767 0.029461024 0.040090244 -0.15608628 -0.08409132 0.02345754 -0.12510554 -0.1342289 -0.32047775 0.0933195 0.026995461 0.27062958 -0.038842022 0.16831273 -0.14342216 0.1271803 -0.045309745 -0.21851434 -0.20000717 -0.23816583 0.2250174 0.061562233 0.009638565 -0.26154804 -0.065905415 0.311399 0.037580978 -0.15427673 0.008035005 -0.088583015 -0.15017596 0.41696766 0.018754454 0.20085473 -0.2714806 -0.15134905 -0.17316791 -0.60222054 0.100745134 -0.1940554 0.08891263 -0.073486075 0.272098 0.3394718 -0.0071303146 -0.024905665 -0.1499111 -0.13169792 0.07199337 0.0770061 0.104906194 0.068638064 0.0901914 0.11237969 0.353594 0.07027514 0.050685953 0.19916168 -0.18501912 -0.01743175 0.1561911 -0.07451788 -0.3005721 -0.10637382 0.18225633 -0.1141461 -0.28688383 -0.037505027 -0.036319997 0.28607368 0.21036448 0.0988486 0.11976186 -0.1341756 0.0027163562 0.020146057 -0.12971291 0.13928455 -0.12870233 0.23373187 -0.056383267 -0.026119329 -0.33032784 -0.1442273 -0.1957426 0.0007988634 -0.23353472 0.30790135 0.09798392 0.23245493 -0.0041028787 0.3902686 0.14510372 0.039193437 0.07248049 -0.034126602 0.14960949 0.15060109 -0.08134343 0.06320805 -0.07544396 -0.25401524 -0.11811886 -0.21199422 0.013102258 -0.14698297 -0.022253586 0.36750415 -0.25160065 -0.08552537 -0.24641144 0.1981193 0.1255708 0.09724877 0.060795482 0.014126231 -0.1267993 0.06690693 0.11843114 0.08491817 -0.08199088 -0.42072392 0.15134086 0.090551585 -0.08199977 -0.04463811 0.39869133 0.13294552 -0.063361414 0.18234189 -0.065570004 0.12501384 0.07886461 0.08654153 0.078257956 -0.12368616 -0.09697902 -0.31804544 0.32281846 -0.24574213 -0.17180827 -0.21453951 0.035125565 -0.0022584302 0.050845917 -0.10189513 0.13226588 -0.0036645192 0.1467887 -0.21419263 0.017539086 -0.1305032 0.06604576 0.20524248 -0.27185088 0.15166181 0.27383077 0.15113184 -0.1376299 -0.22742179 0.08245092 0.09922327 0.017755376 -0.012197723 -0.040845834 -0.038037714 0.2622061 -0.04878881 -0.093885645 0.021447381 -0.0056029167 -0.13400008 -0.28052288 0.17047565 -0.29934117 0.09855612 0.18838601 -0.033735406 -0.046626348 0.13638906 -0.06423524 -0.5402775 -0.03196968 0.23959233 0.07738359 0.14797047 0.23135397 -0.24212125 -0.400831 0.37536806 -0.24188046 -0.058083184 0.30185384 -0.33564875 -0.07684971 0.23591399 -0.19894788 0.30986106 -0.00026837873 0.30266848 0.52804387 0.14409024 0.00092914165 0.014509411 -0.11917852 0.27830854 0.17507358 -0.10411688 0.075217806 0.27761826 0.097474344 -0.05847938 -0.09971376 0.20024513 0.16946228 -0.15148616 0.022376742 0.012386886 -0.17349109 0.11567159 -0.5409782 -0.05845309 -0.12350214 -0.08742262 -0.068371154
主要 -0.20258832 0.20169836 0.115055 -0.16855974 -0.19999236 -0.045659374 -0.095237486 -0.32121408 0.07966885 -0.43724695 0.22353308 -0.19419546 -0.12674679 -0.074170165 0.09526326 -0.03176228 0.15966521 -0.41329774 -0.17390102 0.2025692 0.25471756 0.10042402 -0.3468845 -0.008406696 0.09116492 -0.052855287 -0.29681957 -0.2065006 0.19029294 -0.18075144 -0.2833724 -0.4041091 0.1755554 -0.07689696 0.053801473 -0.24509668 -0.1830697 -0.024962313 -0.21057087 -0.21578866 0.0067578396 0.2396977 0.17460431 -0.012853719 0.1247845 0.1033019 -0.09448345 -0.24866109 0.05493494 -0.012305483 -0.028363796 0.1489933 0.064476416 0.107377835 -0.21010023 -0.0965579 0.020854931 -0.1663954 -0.19051908 0.28528583 0.2624818 0.22852255 0.2212057 -0.050999645 -0.008904663 -0.34406477 -0.17617892 0.14776002 -0.08101695 -0.10687115 0.1506715 -0.09605436 0.03803731 0.24029706 0.07339858 0.21632245 0.01658859 -0.07665333 -0.13262065 -0.0707788 0.07990799 0.30224854 -0.096907675 -0.040345773 0.18456845 0.21883781 -0.047817387 0.15456706 0.19252197 -0.058342993 -0.17597236 -0.04750911 -0.2614837 0.28716442 -0.18201669 0.28589967 -0.019971298 -0.1230824 -0.1482821 0.14267264 0.049997415 0.28069967 -0.057858203 0.020322515 -0.14757165 0.09084539 0.06437391 -0.09551822 -0.18092382 0.25082546 -0.1467488 -0.16955462 0.15572396 -0.018962784 -0.2476962 -0.030080212 -0.071385555 -0.057439912 0.04721378 -0.0049030175 0.16438147 -0.11967099 0.22019051 0.36896127 0.12762624 0.20198277 -0.14318313 0.2122457 0.13900381 -0.043480583 0.2977111 -0.19425042 -0.09040044 0.123663805 -0.19808565 0.004406524 0.02819185 -0.08313149 0.27676955 0.058839407 0.10525085 0.0044072615 0.18751991 -0.1259681 -0.13365006 0.1414621 -0.3075903 -0.050356932 -0.08276812 -0.05378409 0.2747501 -0.2923132 -0.41907626 -0.00074906036 0.36148602 -0.25208795 0.05929511 0.095051534 -0.04182039 -0.05425615 -0.058317374 -0.13034643 -0.19485328 0.17192107 -0.14095865 0.25646195 -0.09867811 0.14312822 0.01303214 -0.061950028 0.27577385 -0.18649396 -0.24833363 -0.0903354 -0.0358243 0.4612232 0.13114353 0.24586247 -0.19789015 0.07428173 -0.0040682056 -0.06896861 -0.106244616 -0.31265846 -0.08756217 0.0043349285 0.108129516 -0.17983496 0.002397778 0.13369176 -0.008442572 0.0023667063 0.12408975 0.10408727 -0.20747666 0.18018799 0.40065968 0.33399597 0.074672036 0.022952842 -0.002147575 -0.07461029 -0.0804998 -0.03761199 -0.18134537 -0.13918918 -0.1723423 0.22426873 0.020713225 0.2761218 -0.2728761 0.032458868 -0.29618037 0.0044436045 0.14761762 -0.3254758 -0.007142087 0.14894362 -0.26106462 -0.16082217 0.11898531 0.013632397 0.13672169 -0.1531262 0.00994142 -0.20999974 0.14745043 0.176049 -0.15054803 -0.037367772 0.13932307 -0.11308688 -0.007784815 0.096152276 -0.09954566 -0.021159826 0.18057856 -0.058008928 -0.028081745 -0.071968466 0.07485189 0.022490384 0.027332904 0.015426147 0.03632878 -0.14557919 0.062318493 0.0904423 0.16662914 -0.2839936 0.17546543 -0.37209 0.009787768 0.068206936 0.09520236 -0.18209118
